/*
 * Copyright (c) 2024 EdgeImpulse Inc.
 *
 * Generated by Edge Impulse and licensed under the applicable Edge Impulse
 * Terms of Service. Community and Professional Terms of Service
 * (https://docs.edgeimpulse.com/page/terms-of-service) or Enterprise Terms of
 * Service (https://docs.edgeimpulse.com/page/enterprise-terms-of-service),
 * according to your product plan subscription (the “License”).
 *
 * This software, documentation and other associated files (collectively referred
 * to as the “Software”) is a single SDK variation generated by the Edge Impulse
 * platform and requires an active paid Edge Impulse subscription to use this
 * Software for any purpose.
 *
 * You may NOT use this Software unless you have an active Edge Impulse subscription
 * that meets the eligibility requirements for the applicable License, subject to
 * your full and continued compliance with the terms and conditions of the License,
 * including without limitation any usage restrictions under the applicable License.
 *
 * If you do not have an active Edge Impulse product plan subscription, or if use
 * of this Software exceeds the usage limitations of your Edge Impulse product plan
 * subscription, you are not permitted to use this Software and must immediately
 * delete and erase all copies of this Software within your control or possession.
 * Edge Impulse reserves all rights and remedies available to enforce its rights.
 *
 * Unless required by applicable law or agreed to in writing, the Software is
 * distributed on an "AS IS" BASIS, WITHOUT WARRANTIES OR CONDITIONS OF ANY KIND,
 * either express or implied. See the License for the specific language governing
 * permissions, disclaimers and limitations under the License.
 */
// Generated on: 26.06.2024 17:34:34

#include <stdio.h>
#include <stdlib.h>
#include "edge-impulse-sdk/tensorflow/lite/c/builtin_op_data.h"
#include "edge-impulse-sdk/tensorflow/lite/c/common.h"
#include "edge-impulse-sdk/tensorflow/lite/micro/micro_mutable_op_resolver.h"
#include "edge-impulse-sdk/porting/ei_classifier_porting.h"

#if EI_CLASSIFIER_PRINT_STATE
#if defined(__cplusplus) && EI_C_LINKAGE == 1
extern "C" {
    extern void ei_printf(const char *format, ...);
}
#else
extern void ei_printf(const char *format, ...);
#endif
#endif

#if defined __GNUC__
#define ALIGN(X) __attribute__((aligned(X)))
#elif defined _MSC_VER
#define ALIGN(X) __declspec(align(X))
#elif defined __TASKING__
#define ALIGN(X) __align(X)
#elif defined __ICCARM__
#define ALIGN(x) __attribute__((aligned(x)))
#endif

#ifndef EI_MAX_SCRATCH_BUFFER_COUNT
#ifndef CONFIG_IDF_TARGET_ESP32S3
#define EI_MAX_SCRATCH_BUFFER_COUNT 4
#else
#define EI_MAX_SCRATCH_BUFFER_COUNT 4
#endif // CONFIG_IDF_TARGET_ESP32S3
#endif // EI_MAX_SCRATCH_BUFFER_COUNT

#ifndef EI_MAX_OVERFLOW_BUFFER_COUNT
#define EI_MAX_OVERFLOW_BUFFER_COUNT 10
#endif // EI_MAX_OVERFLOW_BUFFER_COUNT

using namespace tflite;
using namespace tflite::ops;
using namespace tflite::ops::micro;

namespace {

#if defined(EI_CLASSIFIER_ALLOCATION_STATIC_HIMAX) || defined(EI_CLASSIFIER_ALLOCATION_STATIC_HIMAX_GNU)
constexpr int kTensorArenaSize = 81376;
#else
constexpr int kTensorArenaSize = 80352;
#endif

#if defined(EI_CLASSIFIER_ALLOCATION_STATIC)
uint8_t tensor_arena[kTensorArenaSize] ALIGN(16);
#elif defined(EI_CLASSIFIER_ALLOCATION_STATIC_HIMAX)
#pragma Bss(".tensor_arena")
uint8_t tensor_arena[kTensorArenaSize] ALIGN(16);
#pragma Bss()
#elif defined(EI_CLASSIFIER_ALLOCATION_STATIC_HIMAX_GNU)
uint8_t tensor_arena[kTensorArenaSize] ALIGN(16) __attribute__((section(".tensor_arena")));
#else
#define EI_CLASSIFIER_ALLOCATION_HEAP 1
uint8_t* tensor_arena = NULL;
#endif

static uint8_t* tensor_boundary;
static uint8_t* current_location;

template <int SZ, class T> struct TfArray {
  int sz; T elem[SZ];
};

enum used_operators_e {
  OP_CONV_2D, OP_DEPTHWISE_CONV_2D, OP_PAD, OP_MEAN, OP_FULLY_CONNECTED, OP_SOFTMAX,  OP_LAST
};

struct TensorInfo_t { // subset of TfLiteTensor used for initialization from constant memory
  TfLiteAllocationType allocation_type;
  TfLiteType type;
  void* data;
  TfLiteIntArray* dims;
  size_t bytes;
};

typedef struct {
  TfLiteTensor tensor;
  int16_t index;
} TfLiteTensorWithIndex;

typedef struct {
  TfLiteEvalTensor tensor;
  int16_t index;
} TfLiteEvalTensorWithIndex;

TfLiteContext ctx{};
static const int MAX_TFL_TENSOR_COUNT = 4;
static TfLiteTensorWithIndex tflTensors[MAX_TFL_TENSOR_COUNT];
static const int MAX_TFL_EVAL_COUNT = 4;
static TfLiteEvalTensorWithIndex tflEvalTensors[MAX_TFL_EVAL_COUNT];
TfLiteRegistration registrations[OP_LAST];

namespace g0 {
const TfArray<4, int> tensor_dimension0 = { 4, { 1,72,72,3 } };
const ALIGN(8) float tensor_data1[3] = { 1.6300417184829712, 1.0942995548248291, 1.3670234680175781, };
const TfArray<1, int> tensor_dimension1 = { 1, { 3 } };
const ALIGN(8) float tensor_data2[3] = { 3.8795702457427979, 0.51239067316055298, 1.2542126178741455, };
const TfArray<1, int> tensor_dimension2 = { 1, { 3 } };
const ALIGN(16) float tensor_data3[6] = { 2.7633624076843262, -9.358546257019043, -1.0234019756317139, -0.51297175884246826, 4.249535083770752, -1.8274656534194946, };
const TfArray<1, int> tensor_dimension3 = { 1, { 6 } };
const ALIGN(16) float tensor_data4[6] = { 2.4821147918701172, 2.9193546772003174, 7.877284049987793, 0.054157301783561707, -3.4863235950469971, 0.21139460802078247, };
const TfArray<1, int> tensor_dimension4 = { 1, { 6 } };
const ALIGN(16) float tensor_data5[12] = { 0.39785373210906982, -0.35210144519805908, -0.25601363182067871, 2.7305030822753906, 1.2930824756622314, -3.3353700637817383, -0.59540963172912598, -6.2653093338012695, 2.8139955997467041, 1.2760472297668457, -0.54585295915603638, 5.1840553283691406, };
const TfArray<1, int> tensor_dimension5 = { 1, { 12 } };
const ALIGN(16) float tensor_data6[12] = { 0.27009153366088867, 2.9868078231811523, 5.6089258193969727, 0.60893803834915161, 0.30190765857696533, 0.53575301170349121, 2.5183138847351074, 0.077903836965560913, -0.018882833421230316, 0.30248856544494629, 1.8661876916885376, 0.00098086893558502197, };
const TfArray<1, int> tensor_dimension6 = { 1, { 12 } };
const ALIGN(16) float tensor_data7[12] = { 0.10715639591217041, 1.2431735992431641, 1.3507883548736572, -2.3673248291015625, -1.2761960029602051, 2.975090503692627, -4.5858588218688965, -3.4160714149475098, 3.5559413433074951, -2.8817145824432373, 1.5224683284759521, 1.0703903436660767, };
const TfArray<1, int> tensor_dimension7 = { 1, { 12 } };
const ALIGN(16) float tensor_data8[12] = { 3.4981005191802979, 4.9050483703613281, 9.2043418884277344, 0.74718540906906128, 0.024554044008255005, 3.4143781661987305, 0.015106320381164551, -0.010687708854675293, 3.1567564010620117, -0.051208190619945526, 8.8116741180419922, -0.057538069784641266, };
const TfArray<1, int> tensor_dimension8 = { 1, { 12 } };
const ALIGN(16) float tensor_data9[25] = { 2.240725040435791, -8.1967658996582031, 0.41833314299583435, 0.01709282398223877, 0.094207465648651123, 0.50694268941879272, -0.15516132116317749, 3.1941795349121094, 1.5018987655639648, 3.1031584739685059, 4.2760639190673828, 1.0985664129257202, 2.4546773433685303, 0.35109597444534302, -1.4800398349761963, 2.3863301277160645, 0.35161131620407104, 1.5937594175338745, -0.65205979347229004, 3.6881647109985352, 4.0368232727050781, 2.7212293148040771, -2.8122503757476807, -2.598336935043335, 2.671135425567627, };
const TfArray<1, int> tensor_dimension9 = { 1, { 25 } };
const ALIGN(16) float tensor_data10[25] = { 2.7014999389648438, 1.7158811092376709, 0.10356414318084717, -0.0022889673709869385, -0.0035329461097717285, 2.963292121887207, -0.16120654344558716, 0.0050636529922485352, 2.8762807846069336, 0.74631458520889282, -0.1036548838019371, 2.5591750144958496, 0.8956221342086792, 2.2921416759490967, -0.026563413441181183, 1.9256751537322998, 0.20581960678100586, 0.36731994152069092, 0.17022097110748291, 2.0533573627471924, 1.4928947687149048, 2.4556329250335693, -0.016583774238824844, 0.0030404627323150635, 0.11751139163970947, };
const TfArray<1, int> tensor_dimension10 = { 1, { 25 } };
const ALIGN(16) float tensor_data11[25] = { 2.9362597465515137, 1.6049091815948486, 1.804574728012085, -0.87577056884765625, -2.3646309375762939, 0.36184537410736084, 2.4083657264709473, -0.21373194456100464, 1.37528395652771, 1.0631399154663086, -2.3406217098236084, -2.3129289150238037, -3.3282415866851807, 0.62280625104904175, 0.1406729519367218, 1.7778911590576172, -1.1993604898452759, 1.1608374118804932, -2.0219926834106445, -2.8645930290222168, 0.28164070844650269, 0.83991783857345581, 1.5423331260681152, -1.9559272527694702, 0.69612932205200195, };
const TfArray<1, int> tensor_dimension11 = { 1, { 25 } };
const ALIGN(16) float tensor_data12[25] = { -0.010561168193817139, 0.1636737585067749, 0.030412375926971436, 0.055173397064208984, -0.0094813704490661621, 2.3823428153991699, 0.048920780420303345, 0.026334047317504883, 2.5279457569122314, 2.3254685401916504, -0.0015004873275756836, 1.9475038051605225, 0.053376078605651855, 0.021937191486358643, -0.020992221310734749, 3.5215215682983398, -0.0047473907470703125, -0.064134478569030762, -0.13787657022476196, 1.9912219047546387, 2.747668981552124, 0.096575021743774414, 3.2623016834259033, 2.1068305969238281, -0.45182347297668457, };
const TfArray<1, int> tensor_dimension12 = { 1, { 25 } };
const ALIGN(16) float tensor_data13[51] = { 2.0515742301940918, 0.34577956795692444, 2.0817861557006836, 0.51331055164337158, -0.12063044309616089, 1.9632942676544189, 1.9079318046569824, -0.44019085168838501, 0.24426722526550293, -0.24373334646224976, 2.4734275341033936, 1.7884367704391479, 2.0742194652557373, 0.65730571746826172, -0.065627217292785645, 1.3723903894424438, 0.33045715093612671, 0.53643298149108887, -0.78751051425933838, 0.32345551252365112, 1.8564521074295044, 1.0826393365859985, 1.6297221183776855, 2.2733502388000488, 1.596375584602356, 2.4097120761871338, -0.44406497478485107, -0.42753040790557861, 0.30201297998428345, 3.0833942890167236, 1.3231377601623535, -1.5704710483551025, -2.9803657531738281, -0.47852402925491333, -0.28998678922653198, -0.27478891611099243, 0.84758734703063965, -1.7398413419723511, 0.45863649249076843, 1.6364337205886841, 0.72315287590026855, 2.0027656555175781, -0.36530953645706177, 0.34645542502403259, -0.26237690448760986, -1.1299655437469482, 1.3905084133148193, 0.43412277102470398, 2.1471664905548096, 0.47074234485626221, -0.58993047475814819, };
const TfArray<1, int> tensor_dimension13 = { 1, { 51 } };
const ALIGN(16) float tensor_data14[51] = { 0.049055576324462891, 1.7021888494491577, -0.098653435707092285, 0.48078572750091553, -0.13515913486480713, 2.5807745456695557, 1.3049874305725098, 0.28037959337234497, 2.7019226551055908, 0.44077432155609131, -0.14823761582374573, -0.87822562456130981, 3.22342848777771, -0.048585444688796997, 2.2503864765167236, 3.295987606048584, 1.6480090618133545, 1.195476770401001, 1.9485435485839844, -0.14052927494049072, 3.1002731323242188, -0.02081221342086792, -0.04111441969871521, 0.074793189764022827, 0.45049890875816345, 1.4776852130889893, -0.32544070482254028, 1.3060381412506104, -0.039355009794235229, 2.4186530113220215, 1.7760152816772461, -0.090059995651245117, 0.016359329223632812, 1.6177514791488647, -0.037561871111392975, 0.063822202384471893, -1.7029922008514404, 0.54177302122116089, 0.64066815376281738, 0.23595356941223145, -0.059694409370422363, -0.030988633632659912, 0.11772769689559937, 0.041799485683441162, 1.2479326725006104, 0.98420339822769165, -0.24786156415939331, 0.82072991132736206, 0.013733774423599243, -0.17851662635803223, 0.33357080817222595, };
const TfArray<1, int> tensor_dimension14 = { 1, { 51 } };
const ALIGN(16) float tensor_data15[51] = { 0.97945767641067505, -1.2056927680969238, 0.28293749690055847, -0.39368882775306702, 0.28334599733352661, -0.96289265155792236, 0.96634477376937866, 0.61637324094772339, -0.88194471597671509, 0.79716062545776367, 2.7098731994628906, -1.0644674301147461, -0.1111304759979248, 1.3023855686187744, 1.4947034120559692, -0.46319445967674255, -0.26425588130950928, 0.83918708562850952, 0.75279742479324341, -0.49243289232254028, 1.8322585821151733, 1.1256650686264038, 0.85604757070541382, 0.052325904369354248, 0.047427818179130554, -0.65488970279693604, 1.618638277053833, 0.2245553731918335, -0.14748656749725342, 0.80036258697509766, 0.5289912223815918, 0.11744070053100586, 1.003917932510376, 2.6283483505249023, 1.1814415454864502, -1.7202976942062378, 1.2539926767349243, 0.92619621753692627, -0.071690112352371216, 0.25114935636520386, -0.96686744689941406, 1.1064056158065796, 0.42225700616836548, 1.672781229019165, 1.1103687286376953, 0.86407244205474854, 1.2936145067214966, 1.192368745803833, 2.2770495414733887, -0.0077443122863769531, 0.68456560373306274, };
const TfArray<1, int> tensor_dimension15 = { 1, { 51 } };
const ALIGN(16) float tensor_data16[51] = { -0.10827989131212234, -0.11173886060714722, 0.10911709070205688, -0.5157509446144104, -0.2640795111656189, -0.0042626857757568359, 3.9363484382629395, -0.40638124942779541, -0.51545482873916626, -0.63869243860244751, -0.019957065582275391, -0.97247660160064697, -0.34392476081848145, 0.065074920654296875, 0.026352226734161377, 0.014507710933685303, -0.017310857772827148, 2.9482588768005371, -0.0090524852275848389, -0.004118114709854126, 2.2056136131286621, 6.4160170555114746, -1.399777889251709, 1.2362475395202637, -0.53137683868408203, -0.085925787687301636, 0.2809293270111084, 1.7632745504379272, 1.7193326950073242, -0.1056104302406311, 0.0250224769115448, 0.19539624452590942, 0.016421496868133545, -0.53614300489425659, -0.024868607521057129, 1.6191679239273071, 0.20600274205207825, -0.046659529209136963, 1.0289194583892822, 0.067973703145980835, 1.5332605838775635, -0.30336081981658936, -0.48796507716178894, -0.17895877361297607, 3.5573029518127441, -0.018747091293334961, 0.095251858234405518, 3.4871783256530762, 1.8695163726806641, -0.52579087018966675, 1.031952977180481, };
const TfArray<1, int> tensor_dimension16 = { 1, { 51 } };
const ALIGN(16) float tensor_data17[51] = { 1.0671555995941162, 1.104682445526123, -1.0141557455062866, -0.30586713552474976, 1.1561636924743652, 0.19640636444091797, 0.049119055271148682, -0.74562782049179077, -0.19460952281951904, -0.4121515154838562, 0.31529954075813293, 1.2257816791534424, -0.51306796073913574, 0.1469733715057373, 0.31465816497802734, 0.90656900405883789, 0.9520421028137207, 0.64557909965515137, -0.017381489276885986, -0.72251367568969727, 0.10914844274520874, -0.24231579899787903, 1.0218980312347412, 0.57758897542953491, 0.71205794811248779, -0.24569588899612427, 0.01994168758392334, 1.0631411075592041, 0.30579957365989685, -0.49980884790420532, -0.67575424909591675, 0.96604883670806885, 0.31824624538421631, 1.7343970537185669, 0.67660355567932129, 0.18928372859954834, 1.728665828704834, -0.65458470582962036, 0.10885179042816162, -0.16583013534545898, 0.96035325527191162, 1.4337267875671387, -0.47695326805114746, -0.32855045795440674, 1.2086247205734253, -1.4737917184829712, 0.57279002666473389, -0.71489608287811279, 0.53061527013778687, 0.36956274509429932, -0.41570040583610535, };
const TfArray<1, int> tensor_dimension17 = { 1, { 51 } };
const ALIGN(16) float tensor_data18[51] = { -0.0075096487998962402, -1.1743583679199219, 0.1584591269493103, -0.10214895009994507, 2.2621808052062988, -1.0827310085296631, 0.091322600841522217, -0.69072580337524414, 1.2356042861938477, 1.5140058994293213, -0.21360760927200317, 1.5991686582565308, 1.8618612289428711, 2.7562642097473145, 0.31900343298912048, 2.0008559226989746, 0.32452172040939331, -0.042179316282272339, 0.0080515742301940918, 0.0038988888263702393, 1.5997400283813477, 0.010700106620788574, 1.4783155918121338, 0.47592103481292725, -0.86527502536773682, 0.00063717365264892578, 0.38634413480758667, 0.019551932811737061, 0.30902856588363647, 1.7179973125457764, 1.3711361885070801, -0.012487024068832397, 1.6092400550842285, -0.96856361627578735, 2.6745028495788574, 2.6489958763122559, 1.7733973264694214, -0.10429120063781738, 2.5653047561645508, 1.3440520763397217, -1.3688094615936279, -0.0055380463600158691, 0.40056055784225464, 0.028836846351623535, 2.9623336791992188, -0.055679447948932648, -2.1792612075805664, -0.014958798885345459, -0.088014334440231323, -0.2517523467540741, -0.21189901232719421, };
const TfArray<1, int> tensor_dimension18 = { 1, { 51 } };
const ALIGN(16) float tensor_data19[51] = { 0.22629627585411072, 0.96615356206893921, 1.1356881856918335, 0.32338583469390869, 0.28389209508895874, 0.23599517345428467, 1.2441167831420898, 0.79508298635482788, 0.35286524891853333, 0.8535914421081543, 0.75623178482055664, -0.76041996479034424, -0.17017191648483276, 0.3329613208770752, 0.58974099159240723, 0.12368559837341309, 0.35965731739997864, 1.2867053747177124, 0.535411536693573, 0.030406951904296875, -0.064253412187099457, 0.29068779945373535, 0.074845016002655029, 2.0026400089263916, -0.60296487808227539, 1.2617833614349365, 0.9842650294303894, -0.32583874464035034, 1.7767636775970459, 0.32761284708976746, -2.0858979225158691, -1.6409822702407837, 1.027043342590332, 0.49185928702354431, -1.7470563650131226, 1.7817431688308716, 0.81256890296936035, 0.36637604236602783, 2.2050702571868896, 0.21452540159225464, -0.072115838527679443, 0.80166900157928467, -0.53257197141647339, 0.25447654724121094, 0.84017407894134521, -2.3296899795532227, 1.4472081661224365, 0.78065729141235352, 0.690970778465271, -0.97608911991119385, -0.5090605616569519, };
const TfArray<1, int> tensor_dimension19 = { 1, { 51 } };
const ALIGN(16) float tensor_data20[51] = { -0.012025952339172363, -0.024307221174240112, -0.74932003021240234, -0.23403958976268768, 1.3521710634231567, -0.83069425821304321, -0.3074498176574707, 1.9254069328308105, -0.01154172420501709, -1.0742754936218262, -0.70353376865386963, 1.5739215612411499, -0.44640591740608215, -0.36412248015403748, -0.18656027317047119, -0.90923464298248291, -0.17147886753082275, -0.1072087287902832, 0.066901564598083496, -0.07882082462310791, 0.96071076393127441, -0.0085589885711669922, -0.092481136322021484, -0.27709895372390747, -0.074372678995132446, 2.2689847946166992, -1.1254744529724121, -0.21698430180549622, 2.3282253742218018, -0.046668648719787598, -0.44397810101509094, -0.068018943071365356, -0.032084524631500244, 1.3745126724243164, 0.2130509614944458, 2.2105033397674561, 0.25644958019256592, 0.0019031167030334473, 1.4986288547515869, -0.076961636543273926, -0.18270212411880493, -0.2173825204372406, -0.54554069042205811, 1.5996377468109131, 1.139729380607605, -0.33443382382392883, -0.01523745059967041, 1.4787471294403076, -0.082450270652770996, -9.4234943389892578e-05, -0.16513580083847046, };
const TfArray<1, int> tensor_dimension20 = { 1, { 51 } };
const ALIGN(16) float tensor_data21[51] = { -0.2427176833152771, 0.68549209833145142, -0.29787111282348633, -0.70709377527236938, 0.75436794757843018, -0.094543397426605225, 0.50386065244674683, 0.52500355243682861, 0.98714733123779297, 0.5713658332824707, 0.75606191158294678, 0.01130521297454834, 0.61148738861083984, -0.69989913702011108, 0.23522567749023438, 0.25332099199295044, 0.47876179218292236, 0.47188758850097656, -0.14793545007705688, -0.99336141347885132, 1.8482053279876709, 0.24105203151702881, 0.13226801156997681, 0.091570794582366943, 0.62264621257781982, 0.00090777873992919922, 0.74055123329162598, 1.0629594326019287, 0.33325853943824768, 1.4936505556106567, -1.6279639005661011, 1.8176485300064087, -0.32220539450645447, 0.49737149477005005, 1.1950249671936035, 1.0385200977325439, -0.12223422527313232, 0.85764211416244507, 0.097710549831390381, 0.70500290393829346, 1.1298770904541016, -0.82545208930969238, -0.56348961591720581, 1.0785983800888062, -0.086597710847854614, -0.43285191059112549, -0.021359801292419434, 0.37171867489814758, 0.89331513643264771, 0.67431950569152832, 1.1754961013793945, };
const TfArray<1, int> tensor_dimension21 = { 1, { 51 } };
const ALIGN(16) float tensor_data22[51] = { 0.16959506273269653, -0.29776039719581604, -0.16882389783859253, 1.5541046857833862, -1.55806565284729, -0.29574495553970337, 0.84366035461425781, 2.4501457214355469, 1.9599833488464355, -0.019904613494873047, -0.0011154413223266602, -0.2680131196975708, 2.2638373374938965, -0.040039807558059692, 2.1126453876495361, 2.4189057350158691, -0.82846301794052124, -0.19210559129714966, 1.3801949024200439, -0.19517496228218079, -0.027659118175506592, 1.5423421859741211, 2.2112011909484863, -0.59100013971328735, 0.14380168914794922, 1.965848445892334, 2.4530324935913086, -0.30391320586204529, -0.023135721683502197, 1.9455770254135132, 1.1664547920227051, 2.4656286239624023, 1.4129846096038818, -0.95866668224334717, -0.45163214206695557, -0.19991397857666016, 2.1134462356567383, 1.9762709140777588, -0.0034422874450683594, -0.49024438858032227, -0.18696253001689911, 0.37096959352493286, 0.48842388391494751, 2.5197360515594482, 1.2529621124267578, -0.14651298522949219, 1.7538527250289917, 1.4856185913085938, -0.45164909958839417, 0.015617072582244873, 1.7101790904998779, };
const TfArray<1, int> tensor_dimension22 = { 1, { 51 } };
const ALIGN(16) float tensor_data23[51] = { 0.090450882911682129, 1.2334762811660767, 1.2488061189651489, 1.0005171298980713, 1.1176469326019287, -0.23266103863716125, 1.4318455457687378, 1.0820811986923218, -0.76605606079101562, 0.1366153359413147, 0.034183323383331299, -0.13601499795913696, 0.52198278903961182, 0.13826048374176025, 1.9160425662994385, 0.23393175005912781, -0.99342954158782959, 0.55660557746887207, -2.3751735687255859, -0.31664025783538818, 0.90795719623565674, -0.18644767999649048, -0.49370932579040527, 0.74344432353973389, -0.52408277988433838, 0.67297309637069702, 0.4384341835975647, -0.081324726343154907, -0.5191037654876709, 1.6716392040252686, 0.62850105762481689, -0.61016499996185303, 0.67596590518951416, -1.0556464195251465, -0.69976156949996948, 0.11699503660202026, -1.4130445718765259, 0.87533408403396606, -0.37494939565658569, 1.5275113582611084, 0.48537680506706238, 0.78586763143539429, -0.75656825304031372, 1.3246138095855713, -0.32503378391265869, -1.2203912734985352, -1.6727364063262939, 1.8101253509521484, 0.90622913837432861, 2.1726474761962891, -0.76332974433898926, };
const TfArray<1, int> tensor_dimension23 = { 1, { 51 } };
const ALIGN(16) float tensor_data24[51] = { 1.9588311910629272, 3.2292342185974121, -0.060296237468719482, -0.0078991055488586426, 1.9885505437850952, 1.4724688529968262, 3.1839413642883301, 2.0650825500488281, 0.13945817947387695, 0.0028431415557861328, 0.00099611282348632812, 1.5715090036392212, 1.944831371307373, 1.8871630430221558, 2.0104823112487793, -0.0060517787933349609, -0.01241496205329895, -0.55281710624694824, 0.038157939910888672, -0.013447880744934082, -0.24497276544570923, -0.0061480402946472168, -0.74064797163009644, 1.7207100391387939, 0.015926957130432129, 2.440995454788208, 2.864680290222168, 0.18355518579483032, -0.031793713569641113, 1.7108062505722046, -0.025139510631561279, -0.0072626173496246338, 0.030265450477600098, 1.6876621246337891, -0.021299898624420166, 2.5707712173461914, -0.63021034002304077, -0.1024932861328125, 0.46161419153213501, 1.4646586179733276, -0.074065506458282471, -0.11967635154724121, 2.0402350425720215, 1.0212502479553223, -0.0027904510498046875, 0.2289755642414093, -0.018061220645904541, 0.12228047847747803, 1.7926805019378662, 1.6169925928115845, -0.4717353880405426, };
const TfArray<1, int> tensor_dimension24 = { 1, { 51 } };
const ALIGN(16) float tensor_data25[102] = { 2.6186122894287109, 1.0003207921981812, 1.7561966180801392, 1.9111733436584473, 0.60207325220108032, 0.53349709510803223, -0.12078067660331726, 0.79225254058837891, 0.3496379554271698, 0.2191627025604248, -2.3842473030090332, 1.1823071241378784, 0.87347614765167236, 3.1358499526977539, -1.376645565032959, 0.30116260051727295, 0.9360460638999939, -1.2854878902435303, 1.6371828317642212, -1.1613634824752808, 0.60370051860809326, -0.46675726771354675, -0.082156836986541748, 1.0941582918167114, 0.011398866772651672, -0.7428743839263916, 0.22470299899578094, -1.3911864757537842, 1.4519531726837158, 0.45456480979919434, -1.4103521108627319, -3.7670176029205322, 1.5359894037246704, 1.6852849721908569, -0.19186735153198242, 0.60835814476013184, -1.3831913471221924, 0.014645218849182129, 1.1278290748596191, 1.0947666168212891, -0.020344465970993042, -0.14442208409309387, 0.53796380758285522, 0.42313122749328613, -0.51628279685974121, 1.0576027631759644, 0.1552424430847168, -0.33277952671051025, 1.9178401231765747, -0.30194750428199768, 0.84791070222854614, -0.49138319492340088, 2.0175471305847168, -1.9269498586654663, 1.6799933910369873, 0.44046568870544434, 0.33043092489242554, 0.50877606868743896, -3.3762309551239014, -2.1249275207519531, 0.11009126901626587, -0.038385570049285889, -0.60905492305755615, 0.27413681149482727, -0.58881926536560059, -1.00177001953125, -0.16901642084121704, -1.6051825284957886, 0.95954442024230957, 0.76394248008728027, 2.2197184562683105, -2.4515426158905029, 0.86166912317276001, -0.18910831212997437, 0.038442432880401611, -0.56231087446212769, -0.7808040976524353, -0.3040357232093811, 0.30708286166191101, 0.065621465444564819, 1.4173524379730225, 1.2119834423065186, 0.63916194438934326, -1.1883902549743652, -0.9608917236328125, -1.7915812730789185, 1.0199458599090576, 3.3430888652801514, 0.27206963300704956, -2.4047534465789795, -1.3952736854553223, 2.1420373916625977, -1.858586311340332, 1.6980035305023193, -1.1430749893188477, -1.9834295511245728, -1.7579050064086914, 0.22112762928009033, -0.9790729284286499, 0.41074466705322266, 0.3334348201751709, 0.98414242267608643, };
const TfArray<1, int> tensor_dimension25 = { 1, { 102 } };
const ALIGN(16) float tensor_data26[102] = { 1.5075744390487671, 2.2762494087219238, 2.4348039627075195, -0.71102327108383179, -0.040058434009552002, 1.7335326671600342, 2.6068375110626221, 2.3000597953796387, -0.40570294857025146, 1.4758514165878296, -0.1901610791683197, 2.0110073089599609, -0.028106570243835449, -0.26749080419540405, -0.43643844127655029, -0.033992171287536621, -0.038451194763183594, -0.12085229158401489, 0.007193148136138916, 1.9455804824829102, 2.9001476764678955, 2.541895866394043, 3.3464875221252441, 2.2117993831634521, 0.026051342487335205, -0.82140558958053589, 2.1491019725799561, 2.0719366073608398, 2.6533055305480957, 2.4562304019927979, -0.26942592859268188, -0.035808801651000977, -0.83262532949447632, 2.3646812438964844, 2.5263462066650391, 0.032888799905776978, -0.065794140100479126, -0.013843446969985962, -0.026499718427658081, 2.1403074264526367, -0.030079960823059082, -0.032936066389083862, 2.6837306022644043, 2.4706370830535889, 2.711127758026123, 3.0358164310455322, 1.6196272373199463, -0.036042541265487671, 0.022058248519897461, 2.7643814086914062, 2.6116018295288086, 1.2222194671630859, 1.9356192350387573, -0.072340995073318481, 2.708320140838623, 1.9035599231719971, 2.4323630332946777, 3.5539789199829102, -0.020786046981811523, -0.069069176912307739, 3.3451106548309326, -0.12967827916145325, -0.018358424305915833, 2.6651220321655273, 2.8462984561920166, 1.9287446737289429, -0.31774869561195374, -0.01665043830871582, 1.2931876182556152, 1.4185147285461426, -0.16536480188369751, -0.13394632935523987, -0.17572033405303955, -0.099787116050720215, -0.19645576179027557, 1.5941383838653564, 0.003855288028717041, 2.833305835723877, 2.2684497833251953, 0.25099653005599976, 2.4679946899414062, 1.7273366451263428, -0.25318557024002075, -0.026079893112182617, 2.3800592422485352, 0.0050330460071563721, 1.7436369657516479, -0.10877752304077148, -0.037842869758605957, -0.0078040957450866699, 2.4703831672668457, -0.76079875230789185, -0.34889590740203857, -0.040859073400497437, -0.12650083005428314, -1.4600393772125244, -0.79273200035095215, 1.6801636219024658, 1.6802431344985962, 1.87394118309021, 2.943795919418335, -0.0043014883995056152, };
const TfArray<1, int> tensor_dimension26 = { 1, { 102 } };
const ALIGN(16) float tensor_data27[102] = { -1.9395424127578735, -0.17836922407150269, 5.2362303733825684, 4.2542548179626465, 4.2709846496582031, 2.1746547222137451, 4.6328129768371582, -0.92211341857910156, 3.5121548175811768, -1.5993661880493164, 1.9319145679473877, -0.42325448989868164, -0.38711205124855042, 1.9715142250061035, 1.2888562679290771, 3.1878159046173096, -1.4058928489685059, 2.8033061027526855, 1.9661633968353271, 4.4448604583740234, 2.2456879615783691, 2.7181057929992676, -0.3234676718711853, 3.7350656986236572, -2.3698019981384277, 2.1135163307189941, 2.7321348190307617, 4.2147631645202637, 5.3883895874023438, 1.3265407085418701, 3.4224858283996582, -1.4891018867492676, 4.6672544479370117, 8.4342498779296875, 6.5068168640136719, -1.2567158937454224, 4.648186206817627, 0.78619879484176636, 0.71644771099090576, 0.43367555737495422, 4.1725325584411621, 0.78069311380386353, -1.0351393222808838, 2.9701874256134033, -0.070890724658966064, -3.4320616722106934, 2.5704388618469238, 5.3022069931030273, 1.1771681308746338, 11.512768745422363, 2.7209649085998535, 0.51744866371154785, 3.511843204498291, -4.4699058532714844, 5.121269702911377, -0.94402492046356201, 3.6420934200286865, 3.2251965999603271, 1.9487197399139404, 2.638575553894043, 0.75804007053375244, 3.2029314041137695, 5.2930240631103516, 3.8645908832550049, 3.4174165725708008, 1.4177011251449585, 0.064608395099639893, 1.8582074642181396, 3.6501839160919189, -1.493141770362854, 5.3601498603820801, -0.40749955177307129, 4.270998477935791, -2.4345674514770508, -2.3900008201599121, 4.9550671577453613, 4.7385063171386719, 4.2939348220825195, 6.6785311698913574, 5.9657373428344727, 1.9804706573486328, -2.4108972549438477, -0.99534869194030762, -0.27014279365539551, 1.9022853374481201, 5.9168062210083008, 3.4432892799377441, 0.16811394691467285, 8.9528055191040039, -1.479414701461792, -2.4917228221893311, 3.2678947448730469, -0.4266466498374939, 4.4139904975891113, 5.3993029594421387, 4.5166935920715332, -3.438776969909668, 3.2087666988372803, 1.1130987405776978, 1.0964059829711914, 3.3445429801940918, 3.9241514205932617, };
const TfArray<1, int> tensor_dimension27 = { 1, { 102 } };
const ALIGN(16) float tensor_data28[1*3*3*3] = { 
  /* [0][0][][] */ -0.049024328589439392,-0.020858651027083397,-0.023516686633229256, -0.088298298418521881,2.1455624103546143,0.34130659699440002, 0.17357964813709259,-0.087085925042629242,-0.37494254112243652, 
  /* [0][1][][] */ 0.10986119508743286,-0.024711575359106064,0.58842748403549194, 0.38109999895095825,-2.0366227626800537,1.1534742116928101, -1.1926332712173462,-0.069760784506797791,-0.719451904296875, 
  /* [0][2][][] */ -0.027841797098517418,0.17343907058238983,-0.53929620981216431, -0.12345468997955322,-0.26872938871383667,-0.1371578574180603, 0.33881375193595886,0.17762556672096252,-0.015439087525010109, 
};
const TfArray<4, int> tensor_dimension28 = { 4, { 1,3,3,3 } };
const ALIGN(16) float tensor_data29[1*3*3*6] = { 
  /* [0][0][][] */ -1.1115859746932983,-0.1485951840877533,-0.25761899352073669,-0.20675927400588989,0.29239505529403687,0.077365145087242126, 0.70211005210876465,-0.19221678376197815,-0.45472970604896545,0.70614749193191528,0.49979546666145325,0.11873873323202133, -0.1163867861032486,-0.080489359796047211,-0.19861400127410889,-0.52251726388931274,0.21237891912460327,0.051432047039270401, 
  /* [0][1][][] */ -1.7855441570281982,-0.19292870163917542,-0.36882701516151428,-0.3283255398273468,0.41973409056663513,0.14300096035003662, 1.1827280521392822,-0.24979038536548615,-0.64816099405288696,1.1012026071548462,0.73148858547210693,0.28175368905067444, -0.095278337597846985,-0.096230559051036835,-0.30330914258956909,-0.80953818559646606,0.30623438954353333,0.16044981777667999, 
  /* [0][2][][] */ -0.83546572923660278,-0.076758705079555511,-0.14391019940376282,-0.1116957813501358,0.17129597067832947,0.077044978737831116, 0.62808752059936523,-0.095704264938831329,-0.23920623958110809,0.6257854700088501,0.26953929662704468,0.18178288638591766, 0.024398809298872948,-0.020858472213149071,-0.069865234196186066,-0.38424462080001831,0.086301162838935852,0.11431857198476791, 
};
const TfArray<4, int> tensor_dimension29 = { 4, { 1,3,3,6 } };
const ALIGN(16) float tensor_data30[1*3*3*12] = { 
  /* [0][0][][] */ 0.57439959049224854,-0.23392057418823242,-0.0096454685553908348,-0.62724435329437256,-0.11309574544429779,-0.1228792741894722,0.12418416887521744,0.013031894341111183,0.25939327478408813,0.085577510297298431,-0.51670271158218384,-0.17711484432220459, -0.31588387489318848,-0.32446795701980591,-0.34973394870758057,0.063231974840164185,0.2611396312713623,-0.22771327197551727,-0.19265711307525635,0.13119810819625854,-0.47843685746192932,0.53860366344451904,0.10443369299173355,0.081600114703178406, -0.03801877424120903,0.17032520473003387,0.048467263579368591,-0.082286164164543152,-0.075289011001586914,-0.0037843803875148296,0.089628271758556366,-0.03638085350394249,-0.012123283930122852,-0.052738387137651443,0.013166178017854691,-0.14175130426883698, 
  /* [0][1][][] */ 1.2719299793243408,-0.39216002821922302,-0.1347070038318634,-1.3300871849060059,0.089032649993896484,-1.3297398090362549,0.14080263674259186,0.40950635075569153,-0.79097878932952881,0.29030352830886841,-1.3428630828857422,0.98315995931625366, -0.034038100391626358,-0.7044827938079834,-4.6744623184204102,-0.16235765814781189,1.754033088684082,-0.37005981802940369,-0.76414263248443604,0.48024192452430725,1.2739840745925903,-3.7430529594421387,0.00629808334633708,2.3417773246765137, 0.2040020227432251,-0.098294205963611603,0.39578300714492798,0.033660463988780975,-0.3143475353717804,-0.0033252276480197906,0.01604754850268364,0.3029504120349884,0.14363159239292145,0.86749869585037231,0.027935169637203217,0.36749956011772156, 
  /* [0][2][][] */ 0.22554998099803925,-0.079048633575439453,-0.0339389368891716,-0.53842055797576904,-0.055704511702060699,-0.030161293223500252,0.10135195404291153,0.072031967341899872,0.098745018243789673,0.21140551567077637,-0.46257516741752625,-0.82105588912963867, -0.13170458376407623,-0.2447487860918045,-0.20321661233901978,0.10256266593933105,-0.092089414596557617,-0.13128525018692017,-0.27572005987167358,0.11414818465709686,-0.33547520637512207,0.58910369873046875,0.10582798719406128,-2.4373543262481689, -0.11941032856702805,0.15444284677505493,0.10011856257915497,-0.031260665506124496,0.028847185894846916,0.0095268478617072105,-0.026407618075609207,0.035578884184360504,-0.10055810213088989,0.1140897274017334,0.0073488689959049225,-0.21006454527378082, 
};
const TfArray<4, int> tensor_dimension30 = { 4, { 1,3,3,12 } };
const ALIGN(16) float tensor_data31[1*3*3*12] = { 
  /* [0][0][][] */ -0.45417827367782593,-0.2320699542760849,-0.52623313665390015,-0.30764809250831604,0.22992575168609619,-0.12655593454837799,0.50997823476791382,0.050156060606241226,-0.13301526010036469,-0.0025233037304133177,-0.59446859359741211,-1.0501564741134644, -0.41815447807312012,-0.34505176544189453,-0.63829219341278076,-0.48683997988700867,0.302114337682724,-0.21477773785591125,0.50513434410095215,0.18867157399654388,-0.15178020298480988,-0.18490222096443176,-0.94367539882659912,0.35173869132995605, 0.0033337033819407225,-0.12611851096153259,-0.1934313178062439,-0.22661425173282623,0.13989898562431335,-0.11380415409803391,0.25567370653152466,0.055851135402917862,-0.059296060353517532,0.14686128497123718,-0.51288628578186035,0.72731006145477295, 
  /* [0][1][][] */ -0.54823160171508789,-0.34232169389724731,-0.77558118104934692,-0.34806644916534424,0.30272224545478821,-0.20317667722702026,0.49735856056213379,0.063361264765262604,-0.16846148669719696,0.016753925010561943,-0.5505291223526001,-1.2346946001052856, -0.52444285154342651,-0.43359434604644775,-0.92708092927932739,-0.45032578706741333,0.3924424946308136,-0.32140961289405823,0.50107818841934204,0.22602769732475281,-0.20824877917766571,-0.1969851553440094,-0.92923605442047119,0.40192168951034546, -0.025728842243552208,-0.17917364835739136,-0.30758973956108093,-0.19444401562213898,0.18858292698860168,-0.18202704191207886,0.30623263120651245,0.046016823500394821,-0.066526956856250763,0.22713427245616913,-0.5243341326713562,0.8388790488243103, 
  /* [0][2][][] */ -0.13181155920028687,-0.14260493218898773,-0.470115065574646,-0.043680503964424133,0.17852067947387695,-0.05838138610124588,0.26896679401397705,0.0044541382230818272,-0.072299100458621979,0.0058649498969316483,0.010262886062264442,-0.31288117170333862, -0.16724285483360291,-0.19054889678955078,-0.56095874309539795,-0.060072701424360275,0.22178095579147339,-0.13577128946781158,0.26214483380317688,0.069037638604640961,-0.085868842899799347,-0.10267142951488495,0.034153804183006287,0.099071994423866272, -0.030680842697620392,-0.077374108135700226,-0.12008689343929291,-0.02367456816136837,0.11065731942653656,-0.072637826204299927,0.1504472941160202,-0.0030247184913605452,-0.020447412505745888,0.11120481044054031,0.052052691578865051,0.24112144112586975, 
};
const TfArray<4, int> tensor_dimension31 = { 4, { 1,3,3,12 } };
const ALIGN(16) float tensor_data32[1*3*3*25] = { 
  /* [0][0][][] */ 0.04081551730632782,-0.026161745190620422,-0.28986668586730957,0.33943933248519897,-0.21555271744728088,-0.79922288656234741,-0.13625419139862061,-2.5662336349487305,0.041723906993865967,-0.015597818419337273,0.028341116383671761,0.10012444853782654,0.36813676357269287,0.53967714309692383,0.15799139440059662,0.26071977615356445,-0.1891300231218338,-0.072022758424282074,-0.057066604495048523,-0.25541359186172485,-0.28831961750984192,-0.39301514625549316,-0.32854005694389343,-0.010352457873523235,-0.12325596064329147, -0.31108987331390381,0.096083544194698334,1.4962354898452759,0.90946239233016968,-0.14357545971870422,-0.69073456525802612,0.34945476055145264,1.7728327512741089,0.01728968508541584,0.11226584762334824,-0.49780732393264771,-0.032443813979625702,-0.81293225288391113,-0.39140087366104126,0.96603512763977051,0.024648537859320641,0.19543787837028503,0.023318255320191383,-0.06610388308763504,-0.29004526138305664,-0.89119428396224976,0.52727639675140381,0.19379135966300964,-0.023307487368583679,0.084399498999118805, 0.18526892364025116,-0.032096941024065018,-0.40526098012924194,0.17961499094963074,-0.019525419920682907,0.10316909849643707,-0.30779945850372314,0.81573200225830078,0.13564950227737427,-0.01389404758810997,-0.16502620279788971,0.075876705348491669,0.30629459023475647,-0.080971583724021912,-0.88642591238021851,-0.018192056566476822,-0.12500140070915222,-0.11359920352697372,-0.14339393377304077,-0.052035942673683167,-0.025568822398781776,0.23965205252170563,0.13472247123718262,-0.0067534903064370155,-0.10438758879899979, 
  /* [0][1][][] */ -0.63449239730834961,-0.25898203253746033,-0.68625885248184204,-0.93884825706481934,0.76961958408355713,-1.3049567937850952,0.48407593369483948,2.4881458282470703,-0.37213164567947388,-1.8040735721588135,-0.011693482287228107,-0.065262138843536377,1.1049587726593018,-2.3795821666717529,-0.94370836019515991,-0.29902163147926331,0.27194288372993469,-0.4581560492515564,0.099736638367176056,-0.17320908606052399,-0.34572121500968933,-0.070340596139431,-1.4548662900924683,0.43731305003166199,0.34549146890640259, -0.86694508790969849,-0.27986624836921692,-0.87557989358901978,-1.600459098815918,1.632809042930603,-0.84972250461578369,1.2444785833358765,-1.7905089855194092,-1.6018635034561157,1.1811350584030151,1.730053186416626,-1.2950567007064819,-2.5020363330841064,0.04558747261762619,-2.163442850112915,-1.5328702926635742,1.0563663244247437,2.8895337581634521,1.2985000610351562,-0.25072410702705383,-0.33451420068740845,-1.2024807929992676,1.467490553855896,0.13683353364467621,1.4165422916412354, -0.24811431765556335,-0.033427689224481583,-0.67041027545928955,-0.41332828998565674,0.11728674173355103,0.25799116492271423,-0.22920827567577362,-0.79742956161499023,-0.43536868691444397,0.37173053622245789,0.50471943616867065,0.33903264999389648,0.81102073192596436,-0.13479755818843842,2.0427052974700928,-0.41477149724960327,0.081195488572120667,-0.88498753309249878,0.35558596253395081,0.044788878411054611,-0.049291931092739105,-0.62381976842880249,-0.068101868033409119,0.018104642629623413,0.037996485829353333, 
  /* [0][2][][] */ 0.2277476042509079,-0.026535509154200554,0.20658348500728607,0.43609908223152161,-0.594310462474823,0.81594520807266235,-0.33332571387290955,0.42203208804130554,0.21395118534564972,0.10981437563896179,-0.2547086775302887,0.18402135372161865,0.12233719974756241,0.61747413873672485,0.47347161173820496,0.3875921368598938,-0.176899254322052,0.091391041874885559,-0.13427795469760895,-0.039432477205991745,0.31210547685623169,0.055030215531587601,0.21323277056217194,-0.12185295671224594,-0.16743968427181244, 0.12307119369506836,-0.013123759068548679,-0.37662678956985474,0.83969682455062866,-1.3834902048110962,0.89533418416976929,-0.29937434196472168,-0.299732506275177,0.4701770544052124,0.10454486310482025,-0.7954985499382019,0.27347695827484131,-0.54389464855194092,-0.065931499004364014,1.0594562292098999,-0.18666058778762817,0.062534525990486145,-0.8267475962638855,-0.48259705305099487,-0.0038798449095338583,-0.13123732805252075,0.24805465340614319,-0.36735105514526367,0.062313515692949295,-0.3381708562374115, 0.17217017710208893,0.035445444285869598,0.13994055986404419,0.12352201342582703,-0.23343704640865326,-0.81207764148712158,-0.040277909487485886,-0.086217276751995087,0.23831355571746826,0.0046237683854997158,-0.35511133074760437,0.04597926139831543,0.17338947951793671,-0.0044892500154674053,-0.68308371305465698,0.15394403040409088,-0.092558041214942932,0.12414652854204178,-0.23463790118694305,-0.02624904178082943,0.23134402930736542,0.13249371945858002,0.16393133997917175,-0.030113175511360168,-0.10606416314840317, 
};
const TfArray<4, int> tensor_dimension32 = { 4, { 1,3,3,25 } };
const ALIGN(16) float tensor_data33[1*3*3*25] = { 
  /* [0][0][][] */ 0.19270375370979309,0.17781554162502289,0.23156096041202545,0.20336024463176727,0.29729399085044861,-0.10817001014947891,0.31234407424926758,0.17713131010532379,-0.11670424789190292,-0.24403348565101624,0.14736822247505188,-0.23359796404838562,0.15967506170272827,0.22773535549640656,0.49926209449768066,-0.62230539321899414,0.20745813846588135,0.2043718546628952,0.14784249663352966,-0.17828939855098724,-0.36936542391777039,0.13648197054862976,-0.13908727467060089,-0.1587691456079483,0.25078526139259338, 0.23077775537967682,0.24288691580295563,0.28498351573944092,0.29655459523200989,0.43168085813522339,-0.22526565194129944,0.45815259218215942,0.21852397918701172,-0.18904513120651245,-0.34180477261543274,0.21256071329116821,-0.27836358547210693,0.21263659000396729,0.32528007030487061,-0.090695738792419434,-0.56623268127441406,0.28938886523246765,0.30108153820037842,0.2572530210018158,-0.20285339653491974,-0.43120026588439941,0.21154798567295074,-0.33406785130500793,-0.27227813005447388,0.33455249667167664, 0.081310033798217773,0.1095062717795372,0.11243926733732224,0.11035259813070297,0.15974718332290649,-0.11506213247776031,0.19222427904605865,0.09039519727230072,-0.057250376790761948,-0.15142613649368286,0.13305355608463287,-0.075999565422534943,0.093133300542831421,0.15262183547019958,-0.44107067584991455,-0.20581826567649841,0.10857292264699936,0.13092853128910065,0.11485704779624939,-0.034363057464361191,-0.088688977062702179,0.10131591558456421,-0.20821447670459747,-0.14812520146369934,0.14698104560375214, 
  /* [0][1][][] */ 0.22768805921077728,0.26861047744750977,0.2505682110786438,0.26424703001976013,0.17316563427448273,-0.18086919188499451,0.52221417427062988,0.21139433979988098,-0.20635518431663513,-0.34591466188430786,0.1634192019701004,-0.2481815367937088,0.23404267430305481,0.34068137407302856,0.62993651628494263,-0.69183576107025146,0.25479748845100403,0.27667096257209778,0.18259201943874359,-0.28629854321479797,-0.4341067373752594,0.20169763267040253,-0.2326929122209549,-0.20199128985404968,0.25589489936828613, 0.26533988118171692,0.3362700343132019,0.31672543287277222,0.37308868765830994,0.17090895771980286,-0.35929393768310547,0.63341760635375977,0.2827969491481781,-0.36076188087463379,-0.50502896308898926,0.33745783567428589,-0.31536778807640076,0.32774078845977783,0.43986842036247253,-0.14996026456356049,-0.62631112337112427,0.36148560047149658,0.40791532397270203,0.31280609965324402,-0.27881303429603577,-0.61292886734008789,0.31468930840492249,-0.43860727548599243,-0.36332970857620239,0.39952614903450012, 0.12145295739173889,0.14698903262615204,0.13883662223815918,0.14250779151916504,0.0026104662101715803,-0.18274550139904022,0.26835092902183533,0.11534155905246735,-0.16046525537967682,-0.20992179214954376,0.19473926723003387,-0.09395609050989151,0.14522068202495575,0.19004836678504944,-0.50369739532470703,-0.1448960155248642,0.12479113787412643,0.17113786935806274,0.14647373557090759,-0.089870363473892212,-0.1944185346364975,0.15573486685752869,-0.25031334161758423,-0.19775229692459106,0.18539957702159882, 
  /* [0][2][][] */ 0.086992494761943817,0.11177744716405869,0.062009058892726898,0.09400206059217453,0.02793441154062748,-0.045831892639398575,0.19726480543613434,0.079708926379680634,-0.099956884980201721,-0.14246557652950287,0.055195748805999756,-0.085089467465877533,0.112730473279953,0.15580388903617859,0.2935728132724762,-0.28368887305259705,0.063153818249702454,0.12840563058853149,0.07512364536523819,-0.14732244610786438,-0.23901735246181488,0.10302621126174927,-0.074044272303581238,-0.06271788477897644,0.065503068268299103, 0.10443827509880066,0.1386110782623291,0.098740041255950928,0.13779677450656891,-0.13394682109355927,-0.13664014637470245,0.20168302953243256,0.089659169316291809,-0.21888816356658936,-0.2340044379234314,0.17141878604888916,-0.10354556143283844,0.15659515559673309,0.19297061860561371,-0.12612849473953247,-0.30525636672973633,0.11288297176361084,0.18406586349010468,0.15368172526359558,-0.13987243175506592,-0.29692152142524719,0.16509164869785309,-0.17395272850990295,-0.13536415994167328,0.13508066534996033, 0.061000458896160126,0.073030933737754822,0.072373867034912109,0.052658937871456146,-0.053279928863048553,-0.081192716956138611,0.1405765563249588,0.03035581111907959,-0.13956457376480103,-0.09408869594335556,0.15336884558200836,-0.0096929529681801796,0.075973629951477051,0.084567457437515259,-0.31449699401855469,0.013255060650408268,0.048767659813165665,0.11131121963262558,0.086726963520050049,-0.058486141264438629,-0.10956954956054688,0.1039758175611496,-0.09842420369386673,-0.074939645826816559,0.063676044344902039, 
};
const TfArray<4, int> tensor_dimension33 = { 4, { 1,3,3,25 } };
const ALIGN(16) float tensor_data34[1*3*3*51] = { 
  /* [0][0][][] */ -0.31734573841094971,-0.21956613659858704,0.0407717265188694,-0.084695614874362946,0.033107604831457138,0.020014587789773941,0.20687881112098694,0.041257422417402267,-0.010894385166466236,-0.17225795984268188,-0.050123058259487152,0.047291278839111328,-0.19952310621738434,-0.030258627608418465,-0.013196665793657303,0.10179231315851212,-0.091493621468544006,-0.26970425248146057,0.1413162499666214,-0.070413202047348022,-0.12608763575553894,0.11291281878948212,0.021027181297540665,0.060966785997152328,0.91881060600280762,-0.055192198604345322,-0.021669251844286919,0.047554709017276764,-0.0034197438508272171,0.054727088660001755,0.086374975740909576,-0.11784111708402634,-0.11142793297767639,-0.10380786657333374,-0.36962839961051941,-0.15530075132846832,-0.037920612841844559,0.16796128451824188,-0.076444581151008606,-0.13941079378128052,-0.045426737517118454,-0.079062238335609436,-0.039092708379030228,0.00019721122225746512,0.07849295437335968,0.01719650998711586,0.10896927118301392,-0.048910900950431824,0.056772559881210327,-0.029479295015335083,0.0086439978331327438, 0.3084290623664856,-0.18543748557567596,0.18343459069728851,-0.17899826169013977,0.026918943971395493,-0.047029886394739151,-0.43728750944137573,0.077638700604438782,-0.45043924450874329,-0.24031324684619904,-0.0014156867982819676,-0.21068878471851349,0.20506827533245087,0.068535089492797852,-0.32540524005889893,-0.66068756580352783,-0.24279196560382843,-0.31464564800262451,-0.13529999554157257,-0.26217782497406006,-0.42472538352012634,0.010443191975355148,-0.12570385634899139,-0.032638497650623322,0.64279526472091675,-0.50749450922012329,-0.23934437334537506,0.18026919662952423,0.061649110168218613,-0.13900019228458405,-0.27210733294487,0.03911219909787178,0.048537746071815491,-0.54912060499191284,-0.0079827271401882172,-1.377246618270874,0.49601593613624573,0.62695020437240601,-0.76771068572998047,0.55999463796615601,-0.57731181383132935,0.0047035836614668369,-0.058667667210102081,-0.038623500615358353,-0.20969915390014648,-0.45340496301651001,-0.27376380562782288,-0.011997058987617493,-1.0491067171096802,-0.26110365986824036,-0.73991203308105469, -0.22887305915355682,-0.17729575932025909,0.098722107708454132,-0.14363044500350952,0.042978901416063309,0.10896367579698563,0.13994631171226501,0.064754940569400787,0.03273637592792511,0.088733091950416565,-0.12446372956037521,0.032974611967802048,0.049748647958040237,-0.057079240679740906,-0.011327031999826431,0.04126710444688797,-0.11409860104322433,0.10145732015371323,0.10867053270339966,-0.29830390214920044,-0.11333674192428589,0.087723292410373688,-0.0013650195905938745,0.027452519163489342,0.72149759531021118,0.0096847247332334518,0.015189674682915211,0.19987167418003082,0.049981921911239624,0.087831363081932068,0.014468977227807045,-0.088953487575054169,0.0075538507662713528,-0.025396168231964111,0.33271691203117371,-0.012705008499324322,-0.28682598471641541,0.14372262358665466,-0.1618301123380661,-0.1342189610004425,-0.10191676765680313,-0.062590934336185455,-0.0039975284598767757,0.081137076020240784,0.096567630767822266,-0.00066116487141698599,-0.17409312725067139,-0.023991420865058899,-0.17639003694057465,-0.027649424970149994,-0.18127912282943726, 
  /* [0][1][][] */ -0.84646594524383545,-0.33401736617088318,0.11164171248674393,-0.32862064242362976,0.29317718744277954,-0.42003414034843445,0.18912984430789948,0.037940870970487595,-0.10312487185001373,-0.872203528881073,-0.096293531358242035,-0.24806982278823853,-0.33990883827209473,0.39660888910293579,0.012658664025366306,-0.36186334490776062,-0.24481666088104248,-0.47286742925643921,0.19997982680797577,-0.17543010413646698,0.0015672979643568397,0.034785684198141098,-0.12019898742437363,0.13239273428916931,-0.54822278022766113,-0.016745014116168022,-0.17206333577632904,0.23561401665210724,-0.10898373275995255,-0.21702337265014648,-0.063825905323028564,0.14454928040504456,0.49687543511390686,-0.14709705114364624,-0.94248908758163452,0.067758917808532715,0.41066017746925354,0.32138100266456604,-0.62083339691162109,-0.33408939838409424,-0.27835854887962341,0.10030818730592728,-0.07295902818441391,0.2631070613861084,-0.34153524041175842,-0.38422033190727234,-0.172967329621315,-0.17479504644870758,-0.62106162309646606,-0.4862900972366333,-0.58154481649398804, 2.1094918251037598,-0.91474014520645142,0.65237098932266235,1.2949893474578857,1.5314654111862183,-1.9492728710174561,-1.3371032476425171,0.41078072786331177,-2.1826977729797363,0.044322293251752853,2.0503964424133301,2.1341381072998047,-1.6764918565750122,1.3891727924346924,-1.0043685436248779,-0.55246198177337646,-0.027550932019948959,0.038729391992092133,-1.1406655311584473,1.4305063486099243,-2.134892463684082,0.97628360986709595,0.98563408851623535,1.5262023210525513,-0.87619966268539429,-0.25896039605140686,1.4282042980194092,-1.6461917161941528,1.1865342855453491,-1.4484176635742188,-1.0983766317367554,0.84588563442230225,0.45212793350219727,-0.91378903388977051,0.27973571419715881,0.1580534428358078,1.3125590085983276,-2.4020342826843262,1.8931986093521118,0.92484450340270996,2.3182401657104492,1.1514439582824707,1.3765949010848999,0.43576106429100037,0.00082033470971509814,1.7689752578735352,1.8119866847991943,-0.45725569128990173,1.7313864231109619,1.923553466796875,1.4519683122634888, -0.6244543194770813,-0.32172736525535583,-0.038933005183935165,-0.05507061630487442,0.16574300825595856,-0.25890231132507324,0.23961976170539856,0.071857675909996033,0.0072593623772263527,0.78635424375534058,-0.48846879601478577,-0.34435459971427917,-0.12702482938766479,-1.7397125959396362,0.070653960108757019,-0.13644923269748688,-0.20186851918697357,-0.066581495106220245,0.25194820761680603,0.58571493625640869,-0.06350892037153244,-0.33679598569869995,-0.045297093689441681,0.05002870038151741,-0.68372225761413574,0.10277967900037766,-0.19933266937732697,-0.30679807066917419,-0.033063784241676331,-0.073080010712146759,0.065734229981899261,0.092210911214351654,0.078719809651374817,-0.003413396654650569,0.72596681118011475,-0.05799420177936554,0.38264709711074829,0.47100886702537537,-0.32693907618522644,-0.30730658769607544,-0.34501403570175171,0.026626706123352051,-0.16913087666034698,0.16945149004459381,-0.20122823119163513,-0.33170279860496521,-1.3983926773071289,-0.28455033898353577,-0.33628708124160767,-0.27621567249298096,-0.1525949090719223, 
  /* [0][2][][] */ -0.33186155557632446,-0.013152124360203743,0.0043670237064361572,-0.14240413904190063,-0.44555225968360901,0.10295827686786652,0.057902440428733826,0.040704034268856049,0.10698211193084717,-0.23603340983390808,-0.36524116992950439,-0.16062803566455841,-0.061447355896234512,0.086232796311378479,0.039694748818874359,0.0672411248087883,-0.32311838865280151,-0.0067466618493199348,0.12516988813877106,-0.030624207109212875,0.0018656367901712656,0.20661556720733643,0.002034950302913785,-0.193452388048172,-0.089005850255489349,0.025913069024682045,-0.17504028975963593,0.11881149560213089,-0.1219031810760498,0.050368882715702057,0.018346961587667465,-0.066500641405582428,0.037704348564147949,0.25444069504737854,-0.40122818946838379,0.18771949410438538,0.035708211362361908,0.15735155344009399,-0.06181870773434639,-0.26574471592903137,-0.0084161404520273209,-0.093814007937908173,-0.051789473742246628,0.065695211291313171,-0.035247460007667542,-0.099668338894844055,-0.0053623863495886326,-0.064119897782802582,-0.040390897542238235,-0.076730631291866302,-0.18321967124938965, 0.17789909243583679,0.15836100280284882,0.0923343226313591,0.37159255146980286,-1.2918736934661865,0.13393384218215942,0.36477190256118774,0.13831083476543427,-0.26165091991424561,-0.057069540023803711,-0.60057163238525391,-0.35957667231559753,-0.25807967782020569,-0.079480975866317749,-0.2878074049949646,-0.82047051191329956,-0.26053491234779358,-0.00021332963660825044,-0.049350228160619736,-0.085643850266933441,-0.1941034197807312,-0.68605488538742065,-0.0046065850183367729,-1.5854382514953613,-0.12305488437414169,-0.38960540294647217,0.28792268037796021,-0.54023385047912598,0.1894550621509552,0.11139623075723648,-0.18700036406517029,0.077439315617084503,-0.0040942071937024593,-0.01983451284468174,-0.040254522114992142,1.1449549198150635,0.25879544019699097,0.43869331479072571,0.092305384576320648,0.83568572998046875,0.16688914597034454,0.068024821579456329,-0.11825082451105118,-0.043913468718528748,-0.27891430258750916,-0.076707102358341217,0.26936072111129761,-0.17030821740627289,0.34665274620056152,0.022676404565572739,0.28121811151504517, -0.12377491593360901,-0.035420671105384827,0.037147879600524902,-0.090014606714248657,-0.30328738689422607,0.12400392442941666,0.12481454759836197,-0.00046991754788905382,0.078557766973972321,0.25576978921890259,-0.39264726638793945,-0.11927709728479385,0.056219235062599182,-0.071372739970684052,-0.0039511094801127911,-0.31059646606445312,-0.11438050866127014,0.1005476713180542,0.064479738473892212,-0.078249968588352203,-0.051098674535751343,0.25318199396133423,0.041574195027351379,-0.11001413315534592,-0.27693778276443481,0.025509905070066452,-0.23808826506137848,0.10717764496803284,-0.065902546048164368,0.03518957644701004,0.0185875054448843,-0.018669268116354942,-0.032180085778236389,0.18970276415348053,0.42339250445365906,0.1258130669593811,-0.057518012821674347,0.19899927079677582,0.078000344336032867,-0.11988092958927155,-0.075647696852684021,-0.1257578432559967,0.010688311420381069,0.064255118370056152,-0.079384699463844299,-0.065506942570209503,-0.53195178508758545,-0.13200144469738007,0.024442492052912712,0.114982008934021,0.25671830773353577, 
};
const TfArray<4, int> tensor_dimension34 = { 4, { 1,3,3,51 } };
const ALIGN(16) float tensor_data35[1*3*3*51] = { 
  /* [0][0][][] */ -0.51218390464782715,-0.068420432507991791,-0.02770286425948143,-0.13957518339157104,0.15151505172252655,0.18403360247612,-0.050786286592483521,0.16750690340995789,-0.10440389811992645,-0.058009382337331772,-0.087423823773860931,0.080323517322540283,-0.1840825080871582,-0.20437143743038177,0.011065006256103516,0.14482168853282928,0.0061408421024680138,0.074647217988967896,0.11672407388687134,-0.049544092267751694,-0.093445099890232086,0.21145246922969818,-0.020835315808653831,-0.03285551443696022,-0.01732795313000679,-0.046878594905138016,0.056589938700199127,-0.071687914431095123,-0.034191060811281204,-0.0083890520036220551,0.05157783254981041,-0.14228187501430511,-0.069307178258895874,0.020246740430593491,-0.12140222638845444,0.047755584120750427,-0.22783365845680237,0.13844059407711029,-0.22117209434509277,-0.022733431309461594,-0.30973762273788452,-0.4807392954826355,0.017985874786973,0.10934782773256302,-0.21860210597515106,0.033527299761772156,-0.15095475316047668,-0.45001792907714844,0.11163392663002014,-0.10907586663961411,0.0066168275661766529, 0.048445951193571091,-0.039916466921567917,0.29163354635238647,-0.083348549902439117,0.12142548710107803,0.40663501620292664,-0.24530579149723053,0.28315556049346924,0.5071149468421936,0.39789751172065735,0.29664337635040283,0.36534169316291809,0.65034317970275879,0.40784433484077454,0.32574272155761719,0.31511270999908447,0.28952249884605408,-0.25385686755180359,0.73259264230728149,0.26339194178581238,0.13092897832393646,-1.7034798860549927,0.30829119682312012,-0.31800317764282227,0.33947107195854187,0.21491196751594543,0.15277901291847229,-0.13725225627422333,0.057023026049137115,0.21686142683029175,0.41905471682548523,0.59800267219543457,0.21325875818729401,-0.066432513296604156,-0.05362837016582489,-0.023569151759147644,0.24297256767749786,-0.075150743126869202,-0.26387354731559753,0.2949422299861908,-0.2036391943693161,-0.65081864595413208,0.056508321315050125,-0.53061312437057495,-0.24231676757335663,-0.55226534605026245,0.22148594260215759,-0.48980757594108582,-0.33624061942100525,-0.68947672843933105,0.49229744076728821, 0.41616696119308472,-0.073489591479301453,-0.0030139652080833912,0.13552418351173401,0.14436706900596619,0.11370343714952469,-0.045063983649015427,0.18781374394893646,-0.0092194946482777596,-0.10273073613643646,-0.12903548777103424,0.10058452188968658,0.1146346777677536,0.1969238817691803,-0.06577647477388382,0.18806831538677216,0.021363375708460808,-0.086170591413974762,0.16207115352153778,-0.050398238003253937,-0.17107510566711426,0.36974847316741943,-0.023107491433620453,0.024927794933319092,0.13435336947441101,-0.012710597366094589,0.086164511740207672,-0.020307695493102074,-0.15712377429008484,0.046249143779277802,0.095909513533115387,0.057989023625850677,0.065593890845775604,-0.080275900661945343,-0.33215323090553284,0.034109141677618027,-0.10188110917806625,0.16428974270820618,-0.034139160066843033,-0.18107898533344269,-0.26337769627571106,-0.39667415618896484,0.062032677233219147,0.021077021956443787,-0.090892784297466278,-0.0034349956549704075,-0.013290021568536758,-0.45174106955528259,-0.095082096755504608,-0.19704245030879974,0.079376541078090668, 
  /* [0][1][][] */ -0.80764663219451904,-0.19218440353870392,0.47873252630233765,-0.2179805189371109,0.09209037572145462,-0.032705467194318771,-0.16768720746040344,0.42164230346679688,0.27466684579849243,0.23294925689697266,0.048707045614719391,0.14606866240501404,0.29142874479293823,0.027132807299494743,0.10878901183605194,0.18448151648044586,-0.14698566496372223,-0.68650615215301514,0.6396295428276062,0.050102546811103821,-0.3097665011882782,-0.68647825717926025,0.23348283767700195,-0.25250425934791565,0.35248702764511108,0.33295243978500366,0.014316920191049576,-0.067279621958732605,-0.098374202847480774,0.18157608807086945,0.103938989341259,-0.39177402853965759,-0.062877215445041656,0.0099450452253222466,0.11171672493219376,-0.16213381290435791,0.14911544322967529,0.10662642121315002,-0.2105429470539093,0.094011165201663971,-0.1405940055847168,0.15744085609912872,0.35639551281929016,-0.37676593661308289,-0.74871361255645752,0.038103669881820679,0.13542920351028442,-0.79762208461761475,-0.53112572431564331,-0.061748910695314407,0.1555698961019516, 0.00054744200315326452,1.2101508378982544,0.57932955026626587,1.4337999820709229,1.2314900159835815,0.88028693199157715,-1.691006064414978,1.441980242729187,0.49738416075706482,0.54473459720611572,0.92477744817733765,1.2350337505340576,0.58063423633575439,1.536440372467041,0.57774049043655396,0.95793324708938599,1.1747733354568481,-1.4687966108322144,0.76421868801116943,0.73459208011627197,-1.2483483552932739,-2.105241060256958,1.4328979253768921,-0.79561382532119751,1.055452823638916,0.73557561635971069,0.90532594919204712,-0.67079830169677734,-0.69354474544525146,0.9601060152053833,1.2076807022094727,2.0676639080047607,0.99737972021102905,0.89577597379684448,1.3232572078704834,-0.40475618839263916,0.98405283689498901,-0.14549143612384796,-0.33471697568893433,1.4319405555725098,-0.49170932173728943,1.3994642496109009,-0.1505134254693985,1.2851793766021729,-2.0800542831420898,1.1341202259063721,0.62270206212997437,0.69146245718002319,-0.0301619041711092,1.4645495414733887,0.24654044210910797, 0.71580702066421509,-0.031193789094686508,0.12163536995649338,0.032703526318073273,0.11595159024000168,0.11351777613162994,-0.36934509873390198,-0.067978516221046448,0.40690770745277405,0.27793341875076294,-0.079415217041969299,0.33621484041213989,0.37306797504425049,0.58711844682693481,0.12454041093587875,0.059626903384923935,-0.22111780941486359,-0.51615297794342041,0.65080982446670532,0.18287330865859985,-0.12523551285266876,-0.52029824256896973,0.039375871419906616,-0.17912633717060089,0.066688619554042816,0.28912758827209473,0.016826178878545761,0.092424705624580383,-0.1712086945772171,0.055906455963850021,0.078653216361999512,-0.15003837645053864,0.2510245144367218,0.38951447606086731,-0.14541256427764893,-0.07466503232717514,0.094327092170715332,0.2569793164730072,-0.098958052694797516,-0.61743795871734619,-0.17438796162605286,0.15824195742607117,0.48212090134620667,0.11922640353441238,-0.54306471347808838,0.06595909595489502,0.027071865275502205,-0.46121701598167419,-0.43546375632286072,0.082183443009853363,0.12819445133209229, 
  /* [0][2][][] */ -0.45976608991622925,0.16602659225463867,-0.0046582883223891258,0.18404772877693176,-0.022642850875854492,-0.10678036510944366,-0.001931911101564765,-0.089277870953083038,-0.020775485783815384,0.046400152146816254,0.106218121945858,0.031893894076347351,-0.0050895875319838524,-0.087525039911270142,0.081386551260948181,-0.081692829728126526,0.01976427435874939,0.30287447571754456,0.24241973459720612,0.056406572461128235,-0.10009603202342987,-0.19058859348297119,0.26069745421409607,0.056772693991661072,-0.048672378063201904,-0.12173100560903549,0.058927606791257858,-0.036548729985952377,0.022025661543011665,0.0016983173554763198,-0.25569579005241394,-0.033691141754388809,0.032914865761995316,0.0076100882142782211,-0.0051588946953415871,-0.04330776259303093,-0.30896565318107605,0.1036074236035347,-0.17403587698936462,-0.65045547485351562,-0.1068294495344162,-0.041475012898445129,0.18271695077419281,0.090913102030754089,-0.07188764214515686,-0.012759894132614136,-0.01410067081451416,-0.49878543615341187,-0.19146019220352173,0.060122869908809662,-0.27676886320114136, 0.037863019853830338,0.060872375965118408,-0.31847858428955078,-0.54016178846359253,-0.19718928635120392,-0.36978331208229065,-0.1240357905626297,-0.50683444738388062,0.24231085181236267,0.14200803637504578,-0.023724567145109177,-0.2504255473613739,-0.22429540753364563,-1.7937732934951782,0.037623140960931778,-0.5419461727142334,-0.031595587730407715,0.15287789702415466,-1.0112321376800537,-0.080506689846515656,-0.14201702177524567,-1.5741097927093506,0.1377117931842804,0.755623459815979,0.054245177656412125,0.31921979784965515,-0.38808616995811462,-0.2093631774187088,-0.2455890029668808,-0.065559506416320801,-1.3952350616455078,-1.785031795501709,-0.45199590921401978,0.11515349149703979,0.31931057572364807,-0.15956448018550873,0.09015992283821106,0.50513660907745361,-0.35846471786499023,-1.5165961980819702,-0.14679801464080811,0.21217051148414612,0.36043104529380798,0.017183484509587288,-0.3289932906627655,0.10126879066228867,0.28133800625801086,-0.44361454248428345,-0.48966071009635925,0.25209334492683411,-1.3851488828659058, 0.44225147366523743,0.13804912567138672,-0.00021014909725636244,-0.030518701300024986,-0.08531729131937027,-0.27579009532928467,0.010107520967721939,-0.037607848644256592,0.026724338531494141,0.029660359025001526,0.065228559076786041,-0.073280766606330872,-0.033984813839197159,-0.78398764133453369,0.12109977751970291,-0.090975821018218994,0.047786165028810501,0.09739597886800766,-0.48456838726997375,-0.096014492213726044,-0.031173022463917732,-0.22238285839557648,0.087337635457515717,0.17832507193088531,0.031429540365934372,-0.14857344329357147,0.054481428116559982,0.0037223028484731913,0.019834747537970543,-0.031103711575269699,-0.23553027212619781,-0.35436108708381653,-0.11392897367477417,0.088681042194366455,-0.24574418365955353,-0.029863931238651276,-0.33165785670280457,0.24165430665016174,0.080218188464641571,-0.60088139772415161,-0.072334669530391693,0.0080288900062441826,0.18800501525402069,0.19990935921669006,0.080371201038360596,0.0056320978328585625,0.012236029841005802,-0.34635180234909058,-0.10576716065406799,0.22690962255001068,-0.42316535115242004, 
};
const TfArray<4, int> tensor_dimension35 = { 4, { 1,3,3,51 } };
const ALIGN(16) float tensor_data36[1*3*3*51] = { 
  /* [0][0][][] */ 0.21277976036071777,0.46614217758178711,0.12851656973361969,0.28727111220359802,-0.059915017336606979,0.23827818036079407,0.26998546719551086,0.083096869289875031,-0.45176798105239868,-0.21471160650253296,0.41250121593475342,0.0079190535470843315,-0.064978517591953278,-0.35078996419906616,0.77702772617340088,-0.34547621011734009,0.033831790089607239,0.30294492840766907,0.22886921465396881,0.19303329288959503,-0.13827571272850037,0.1515573263168335,-0.18866695463657379,0.26940229535102844,-0.6141664981842041,0.19560480117797852,0.260610431432724,0.21585516631603241,0.17092949151992798,-0.16972176730632782,-0.17476747930049896,0.31106022000312805,-0.19117936491966248,0.014711426571011543,-0.54193496704101562,-0.23304079473018646,-0.2846856415271759,0.24632048606872559,-0.21649536490440369,-0.062608234584331512,0.081197731196880341,0.24140077829360962,0.11663054674863815,-0.031716659665107727,-0.20166121423244476,0.3973824679851532,-1.7480405569076538,0.053202111274003983,0.30875885486602783,0.12505131959915161,0.14483784139156342, 0.14115096628665924,0.5957680344581604,0.21367925405502319,0.37597277760505676,-0.51995891332626343,0.083158716559410095,0.15820463001728058,0.33921787142753601,-0.10161750018596649,-0.33065924048423767,1.4584825038909912,-0.30941653251647949,-0.46424999833106995,-0.33466413617134094,0.084969066083431244,-0.019260073080658913,0.36203712224960327,0.22480636835098267,0.057531934231519699,0.55565851926803589,-0.11203110963106155,0.34258255362510681,-0.41285926103591919,-0.14701162278652191,-0.3279193639755249,0.1354101300239563,0.33488574624061584,0.22209696471691132,0.376609206199646,-0.18037697672843933,-0.12949518859386444,0.24258607625961304,-0.2397041916847229,0.18474642932415009,-1.0006868839263916,-0.16451446712017059,-0.59185385704040527,-0.27161490917205811,-0.21480968594551086,-0.081749685108661652,0.51850289106369019,0.28519093990325928,0.27656310796737671,0.44408687949180603,-0.40312960743904114,-0.6819382905960083,-0.67013734579086304,0.21235936880111694,0.34988296031951904,0.28897339105606079,0.41812637448310852, -0.19825464487075806,0.19116945564746857,-0.11309365183115005,0.1680455207824707,0.1510334312915802,0.091331623494625092,-0.20825868844985962,-0.15887214243412018,-0.31639409065246582,0.0078648896887898445,-0.077103935182094574,0.12620487809181213,0.11098708212375641,-0.29452815651893616,0.40606468915939331,-0.21910063922405243,-0.14764533936977386,-0.37191316485404968,-0.12265074998140335,-0.24775543808937073,-0.062620475888252258,-0.19934016466140747,0.11240831762552261,0.40534612536430359,-0.41743013262748718,-0.27752017974853516,-0.10018719732761383,-0.26829150319099426,-0.24905562400817871,-0.14477318525314331,-0.025294926017522812,0.084036551415920258,0.0092664025723934174,-0.1570831835269928,-0.13044644892215729,-0.13402006030082703,0.022022830322384834,0.14562049508094788,0.080486863851547241,-0.038957115262746811,0.026717115193605423,0.041218582540750504,-0.19205443561077118,-0.24916078150272369,-0.033317804336547852,-0.14656208455562592,-0.5332489013671875,-0.052371393889188766,-0.016105290502309799,-0.0039897635579109192,-0.11428909003734589, 
  /* [0][1][][] */ 0.31795310974121094,0.17522524297237396,0.15073394775390625,0.25148546695709229,-0.44866311550140381,0.20509946346282959,0.22191186249256134,0.42968475818634033,-0.22314293682575226,-0.2629149854183197,0.17789630591869354,-0.24085426330566406,-0.35510841012001038,-0.35821050405502319,-0.15985831618309021,-0.21871195733547211,0.036720681935548782,0.34314203262329102,0.067781858146190643,0.16378322243690491,-0.21393640339374542,0.21028895676136017,-0.17041020095348358,-0.15923251211643219,0.25095823407173157,0.2590789794921875,0.15287797152996063,0.1639958918094635,0.37360677123069763,-0.14354993402957916,-0.19756962358951569,0.28449311852455139,-0.32258766889572144,0.22851575911045074,0.03428785502910614,-0.29058206081390381,-0.1882883608341217,0.15729449689388275,-0.133880615234375,-0.35818222165107727,0.12981317937374115,0.27590727806091309,0.033825039863586426,0.065735295414924622,-0.42415139079093933,0.13053466379642487,1.4844216108322144,-0.20968785881996155,0.29217645525932312,0.11371520906686783,0.089956939220428467, 0.67042475938796997,0.28039935231208801,0.29211130738258362,0.56955957412719727,-0.76090824604034424,-0.14976099133491516,0.80974334478378296,0.31418782472610474,-0.058475334197282791,-0.43228253722190857,0.52248936891555786,-0.23040130734443665,-0.36334341764450073,-0.60561257600784302,-0.74849212169647217,-0.32997032999992371,0.69532209634780884,0.92264270782470703,0.97292190790176392,0.33331087231636047,-0.29733708500862122,0.61366415023803711,-0.32634204626083374,-0.22564840316772461,1.0456372499465942,0.4606684148311615,0.51329559087753296,0.90413528680801392,0.82334637641906738,-0.22288252413272858,-0.31965070962905884,0.85992813110351562,-0.34081736207008362,0.73027217388153076,-0.87935960292816162,-0.67863130569458008,-0.47989222407341003,1.0446658134460449,-0.76659417152404785,-0.42754021286964417,0.62039452791213989,0.41784563660621643,0.85450589656829834,0.6368059515953064,-0.66778564453125,0.50772392749786377,2.9811434745788574,0.72972863912582397,0.92849999666213989,0.70243972539901733,0.28044238686561584, -0.39789858460426331,0.31196969747543335,-0.11503328382968903,0.057018827646970749,0.017441367730498314,0.26348072290420532,-0.40909603238105774,0.33538451790809631,-0.16449746489524841,0.028649957850575447,-0.061577863991260529,-0.16542486846446991,-0.21791812777519226,0.042407002300024033,0.082881011068820953,-0.19894427061080933,-0.14446218311786652,-0.45116245746612549,-0.63361799716949463,-0.037834450602531433,-0.18014025688171387,-0.17396031320095062,-0.015530785545706749,-0.026810858398675919,0.2006436288356781,-0.35997679829597473,-0.18022418022155762,-0.41247501969337463,-0.40429064631462097,-0.1554054468870163,-0.19922606647014618,0.040055207908153534,-0.11634412407875061,-0.0024297761265188456,0.02659398689866066,-0.18459068238735199,-0.041235927492380142,-0.3600209653377533,0.069227047264575958,-0.20718863606452942,-0.12316808849573135,0.15860101580619812,-0.3773515522480011,-0.12372251600027084,-0.13244485855102539,-0.91752845048904419,0.068940550088882446,-0.4488823413848877,-0.15197592973709106,-0.19166100025177002,-0.018734829500317574, 
  /* [0][2][][] */ 0.22041495144367218,0.23425570130348206,0.2238067090511322,-0.052866049110889435,0.25948533415794373,0.537800133228302,0.25948765873908997,-0.04108777642250061,-0.22532328963279724,-0.11719489097595215,-0.072983294725418091,-0.12648539245128632,-0.024584038183093071,-0.17722597718238831,-0.064910314977169037,-0.24691575765609741,-0.071438126266002655,-0.046687781810760498,0.12183333933353424,0.54027235507965088,-0.22607296705245972,0.10990337282419205,-0.087789781391620636,0.57435166835784912,0.0054737809114158154,0.111255943775177,0.012482212856411934,0.16382019221782684,-0.030055031180381775,-0.15498307347297668,-0.026145011186599731,-0.27169302105903625,-0.11675241589546204,0.23618991672992706,0.068392686545848846,-0.20128855109214783,0.069836817681789398,0.12275499850511551,-0.31877198815345764,0.033058222383260727,0.29657045006752014,0.054711993783712387,0.12273461371660233,0.069248877465724945,-0.18558184802532196,0.48186060786247253,0.034381736069917679,0.31115934252738953,0.035456988960504532,0.087916888296604156,0.16547338664531708, 0.12119714170694351,-0.0024414048530161381,0.44370278716087341,0.12417800724506378,0.18618662655353546,1.2953708171844482,0.22251395881175995,0.40825656056404114,-0.056372955441474915,-0.22597441077232361,0.20836885273456573,-0.25990250706672668,-0.43692907691001892,-0.3398396372795105,-0.28427305817604065,-0.36795035004615784,0.30059042572975159,-0.19260841608047485,0.42902186512947083,-0.23398393392562866,-0.091048307716846466,0.2777009904384613,-0.2033378928899765,0.31010881066322327,1.2673202753067017,0.60564810037612915,0.027960732579231262,0.37194386124610901,-0.019368376582860947,-0.14780108630657196,-0.18776130676269531,-0.2315632551908493,-0.35078662633895874,0.37642115354537964,-0.43158218264579773,-0.46425700187683105,0.23061747848987579,0.20240209996700287,-0.40910977125167847,-0.092471905052661896,0.92270469665527344,0.59185385704040527,0.2435472309589386,0.35590526461601257,-0.49199715256690979,0.58582848310470581,-0.62571448087692261,0.5233302116394043,0.089215084910392761,0.22811831533908844,0.3678784966468811, -0.081970706582069397,0.38008770346641541,-0.15000365674495697,-0.074485927820205688,0.16848565638065338,0.22685034573078156,-0.29260170459747314,-0.0090933507308363914,-0.23161020874977112,-0.0051892106421291828,-0.14777202904224396,0.005731749814003706,0.082203075289726257,-0.134952113032341,-0.030223164707422256,-0.18208135664463043,-0.14452190697193146,0.096878349781036377,-0.31067767739295959,0.42685255408287048,-0.13957870006561279,-0.15673977136611938,-0.029734939336776733,0.46677348017692566,-0.18024617433547974,-0.42576771974563599,-0.11420344561338425,-0.34017184376716614,-0.20081996917724609,-0.092267327010631561,-0.0097400890663266182,-0.17972695827484131,-0.042254336178302765,0.092054098844528198,0.0027886321768164635,-0.025523869320750237,-0.093133881688117981,-0.22682322561740875,0.036492086946964264,0.073175251483917236,-0.00233274488709867,-0.24873031675815582,-0.16289572417736053,-0.092620857059955597,-0.093278370797634125,-0.14844749867916107,0.58137935400009155,0.0010900722118094563,-0.057364232838153839,-0.11145298928022385,0.037273302674293518, 
};
const TfArray<4, int> tensor_dimension36 = { 4, { 1,3,3,51 } };
const ALIGN(16) float tensor_data37[1*3*3*51] = { 
  /* [0][0][][] */ -0.13223864138126373,0.6261667013168335,-0.2161848396062851,0.01490388810634613,0.037831533700227737,0.058149952441453934,-0.1448923796415329,0.017214694991707802,0.40123409032821655,0.088111601769924164,0.013868339359760284,0.027986682951450348,-0.088049985468387604,0.060843396931886673,0.26049616932868958,0.30001673102378845,-0.17197728157043457,-0.10203450918197632,-0.27549940347671509,-0.24566131830215454,-0.04614841565489769,0.15746916830539703,-0.073148556053638458,-0.03420720249414444,0.24402831494808197,0.048427648842334747,0.46589556336402893,-0.29149892926216125,0.076043196022510529,-0.039961613714694977,-0.075055144727230072,-0.030524641275405884,-0.1748918890953064,0.16917125880718231,-0.29211476445198059,-0.25758278369903564,-0.29607003927230835,-0.11265081167221069,-0.0071465549990534782,-0.23515166342258453,-0.03108912892639637,-0.15375740826129913,0.015044713392853737,-0.1032257005572319,-0.17072813212871552,0.0063206246122717857,-0.081726565957069397,-0.093253627419471741,-0.030481314286589622,-0.3054707944393158,-0.078414276242256165, 0.90186285972595215,-0.21533821523189545,1.1489859819412231,0.55824393033981323,-0.33016833662986755,0.11505463719367981,0.065532341599464417,0.0087377727031707764,0.21680241823196411,0.4465852677822113,0.12180802226066589,-0.31475245952606201,0.29227882623672485,0.099576748907566071,0.78433090448379517,0.27796080708503723,0.31435725092887878,0.49464771151542664,-0.11902814358472824,0.17949303984642029,-0.16442278027534485,0.30321314930915833,0.21611732244491577,0.2755245566368103,0.78547412157058716,-0.47985875606536865,0.094301655888557434,-0.056801594793796539,-0.34723877906799316,0.24341392517089844,-0.19029079377651215,1.404571533203125,-0.17178933322429657,-0.26905754208564758,0.67257219552993774,-0.17166247963905334,0.38763853907585144,-0.081707172095775604,-0.20013056695461273,0.56804811954498291,0.37642648816108704,-0.91298443078994751,0.30534783005714417,-0.12670311331748962,-0.03762652724981308,0.26011395454406738,0.50575178861618042,-0.31370726227760315,0.061232615262269974,0.3135465681552887,0.095704711973667145, 0.4710831344127655,0.19953712821006775,0.066509291529655457,0.29899662733078003,-0.1363784521818161,0.045543499290943146,-0.23879863321781158,-0.032404456287622452,0.66617852449417114,0.28290536999702454,0.27782073616981506,-0.16049470007419586,-0.0054079680703580379,0.14871592819690704,0.01729036308825016,0.52418893575668335,0.17838022112846375,0.1072876900434494,-0.20566798746585846,0.025614636018872261,-0.27843165397644043,0.1561741977930069,0.2123723179101944,0.12375105917453766,0.28641039133071899,-0.17654873430728912,0.55504637956619263,-0.21372228860855103,-0.0026354109868407249,0.19978205859661102,-0.030055217444896698,0.077670015394687653,-0.25494271516799927,0.053853824734687805,-0.29259413480758667,-0.53735792636871338,0.044879868626594543,-0.18296054005622864,-0.13321058452129364,0.15866024792194366,0.0095762917771935463,-0.68752634525299072,-0.52018046379089355,-0.24573436379432678,-0.31978923082351685,0.03828883171081543,0.21344009041786194,-0.23378320038318634,0.29727253317832947,-0.10397940129041672,-0.074775509536266327, 
  /* [0][1][][] */ -0.14436833560466766,0.17194189131259918,0.039732370525598526,-0.053378529846668243,-0.07487642765045166,-0.005771249532699585,-0.34770458936691284,-0.033192902803421021,-0.15711496770381927,-0.1688121110200882,-0.094255335628986359,0.018654657527804375,0.086504556238651276,0.080623947083950043,-0.13248468935489655,0.11884812265634537,-0.10924576222896576,-0.0047979927621781826,-0.036675408482551575,0.052169762551784515,-0.14273753762245178,-0.29926526546478271,-0.15059807896614075,-0.075128316879272461,-0.26800897717475891,-0.0054053450003266335,-0.042131531983613968,0.038163390010595322,0.01115832757204771,0.17393630743026733,-0.18264976143836975,-0.35819631814956665,-0.074791543185710907,-0.34762188792228699,-0.038418035954236984,0.32555478811264038,-0.1347825676202774,-0.29751798510551453,0.060638315975666046,-0.057375382632017136,0.11588094383478165,-0.20149901509284973,0.71277457475662231,-0.18093886971473694,-0.069663569331169128,0.16416759788990021,0.053109977394342422,-0.22715532779693604,-0.29323828220367432,-0.064133457839488983,-0.016390139237046242, -0.092216290533542633,-0.7687574028968811,0.90227556228637695,0.4925122857093811,-0.17774799466133118,0.37730240821838379,0.96388620138168335,-0.77647405862808228,-0.13238412141799927,0.40866085886955261,0.56618720293045044,-0.17843137681484222,0.93950992822647095,0.60499370098114014,0.20190995931625366,0.22272464632987976,0.86800312995910645,0.54670149087905884,0.87712258100509644,0.8750540018081665,-0.059285305440425873,0.89385789632797241,1.3335837125778198,0.14454667270183563,0.23837016522884369,-0.31712052226066589,-0.1640048623085022,0.35591474175453186,-0.43393871188163757,0.09552706778049469,1.3332504034042358,0.0053831548430025578,0.98282843828201294,-0.24126750230789185,0.64744925498962402,-0.77809262275695801,1.0245784521102905,0.88545286655426025,-0.25017699599266052,0.96098464727401733,0.69913214445114136,0.69302248954772949,0.92936289310455322,-0.5351567268371582,-0.13188543915748596,0.28701582551002502,0.44792237877845764,-0.12190728634595871,1.3065862655639648,0.76310837268829346,0.65033769607543945, -0.034448020160198212,-0.021376777440309525,0.25312981009483337,0.15279045701026917,-0.18257024884223938,0.19980433583259583,0.3242889940738678,-0.11163311451673508,-0.30899685621261597,0.054185807704925537,0.18333253264427185,-0.073015205562114716,0.2969641387462616,0.25241574645042419,-0.24997265636920929,0.25603863596916199,0.31452834606170654,0.31619080901145935,0.10573385655879974,0.74362021684646606,-0.22565631568431854,-0.085533961653709412,0.44685065746307373,-0.11778843402862549,-0.4125087559223175,-0.24956938624382019,0.047636236995458603,0.67044132947921753,-0.49439191818237305,0.40005692839622498,0.1721474826335907,0.21312297880649567,0.28531548380851746,-0.40712273120880127,-0.02413238026201725,0.0070863906294107437,0.45256766676902771,0.28319025039672852,-0.11450682580471039,0.55793386697769165,0.35318148136138916,0.29087433218955994,-0.69223976135253906,-0.36163920164108276,-0.071016311645507812,0.30629491806030273,0.11218283325433731,-0.21546211838722229,0.56491190195083618,0.29626324772834778,0.26757156848907471, 
  /* [0][2][][] */ -0.0092665133997797966,0.85436522960662842,-0.1071966364979744,-0.20531290769577026,-0.14418621361255646,0.40810719132423401,-0.13309741020202637,0.13811537623405457,0.45456135272979736,-0.0098353121429681778,-0.65222543478012085,-0.066863596439361572,-0.13372552394866943,-0.12062299251556396,0.045759044587612152,0.26592141389846802,-0.14553199708461761,0.04406038299202919,-0.201102614402771,-0.23641021549701691,-0.025081323459744453,0.0057652001269161701,-0.34756681323051453,-0.079938896000385284,-0.020058479160070419,-0.032830413430929184,0.63954263925552368,-0.315378338098526,0.12582245469093323,-0.10743759572505951,0.015616146847605705,-0.16801203787326813,-0.17584463953971863,0.015371119603514671,0.018473777920007706,-0.44113749265670776,-0.19403839111328125,0.014052866958081722,-0.011532306671142578,-0.22780314087867737,-0.07890966534614563,-0.0060073975473642349,-0.26729068160057068,0.24467287957668304,-0.30656424164772034,-0.042525775730609894,-0.1874932199716568,-0.21871159970760345,-0.18228602409362793,-0.040428135544061661,0.040979374200105667, 0.064344733953475952,-0.29654952883720398,0.2788272500038147,-0.21037191152572632,-0.12796300649642944,0.65726041793823242,0.87196111679077148,-0.38816180825233459,-0.053623951971530914,0.81361281871795654,0.76729923486709595,-0.19609689712524414,0.12861469388008118,0.038635294884443283,-0.26595810055732727,0.28381401300430298,-0.087026014924049377,-0.17377191781997681,0.52446180582046509,-0.27682283520698547,-0.26743334531784058,0.11270782351493835,-0.24524453282356262,0.75727289915084839,-0.27948495745658875,-0.49239367246627808,0.4799957275390625,0.38442453742027283,-0.46973419189453125,0.25783315300941467,0.0624416284263134,0.30345940589904785,0.34420868754386902,-0.34728601574897766,0.23303209245204926,-0.17009237408638,-0.34747800230979919,-0.081130966544151306,-0.35867598652839661,-0.29190841317176819,-0.12446102499961853,0.35055530071258545,-0.38362056016921997,-0.13455899059772491,-0.19754686951637268,0.17851629853248596,0.042345460504293442,-0.28627702593803406,0.0085115190595388412,-0.15156078338623047,0.30740067362785339, 0.15577772259712219,0.075526796281337738,-0.13896211981773376,-0.31182205677032471,-0.22176007926464081,0.51363146305084229,0.33301690220832825,-0.14904166758060455,0.57170087099075317,0.37587690353393555,0.34582903981208801,-0.1196017786860466,-0.22759734094142914,-0.030346058309078217,0.12691937386989594,0.46681845188140869,-0.085474736988544464,-0.05797884613275528,0.28890508413314819,-0.26441276073455811,-0.20224478840827942,-0.06796138733625412,-0.43009349703788757,0.40401917695999146,-0.20191608369350433,-0.2753203809261322,1.0715196132659912,0.2390248030424118,-0.11185003817081451,0.14822135865688324,0.032481212168931961,-0.24530957639217377,-0.20696599781513214,-0.099345900118350983,0.20515249669551849,-0.31904152035713196,-0.40717384219169617,0.14774574339389801,-0.14235119521617889,-0.43993142247200012,-0.050255157053470612,0.487235426902771,0.18461009860038757,0.20816271007061005,-0.42385116219520569,-0.038167659193277359,-0.12593543529510498,-0.37720081210136414,-0.39684587717056274,0.14879173040390015,0.11684180051088333, 
};
const TfArray<4, int> tensor_dimension37 = { 4, { 1,3,3,51 } };
const ALIGN(16) float tensor_data38[1*3*3*51] = { 
  /* [0][0][][] */ -0.010381247848272324,0.14486128091812134,0.14277006685733795,-0.49681797623634338,0.47838956117630005,0.15674076974391937,0.16373281180858612,-0.39595457911491394,-0.0009416679386049509,0.14591020345687866,0.31451365351676941,-0.12069088220596313,-0.32054594159126282,0.13834311068058014,-0.17813132703304291,-0.17021913826465607,0.020144253969192505,0.0056346571072936058,-0.36854654550552368,0.09169536828994751,0.021346678957343102,-0.19058987498283386,-0.28611758351325989,0.2850947380065918,-0.12042500823736191,-0.36793851852416992,-0.038792621344327927,-0.63309705257415771,-0.051258008927106857,-0.43392372131347656,-0.33277606964111328,-0.39407640695571899,-0.20512785017490387,0.15730860829353333,0.52666246891021729,0.17167814075946808,0.12478440254926682,0.0061818952672183514,0.083440385758876801,0.48299184441566467,-0.69979983568191528,-0.25963443517684937,0.12447270750999451,-0.34409290552139282,-0.18668630719184875,-0.30237644910812378,-0.27265289425849915,-0.39900121092796326,0.33966302871704102,0.17795349657535553,-0.14455114305019379, -0.12501215934753418,0.26068013906478882,0.18305417895317078,0.19360625743865967,-0.18164421617984772,0.3731224536895752,0.78891515731811523,-0.41935276985168457,-0.008511674590408802,0.17155781388282776,1.1627933979034424,0.030474385246634483,-0.35834392905235291,0.083537504076957703,-0.28107425570487976,-0.25658696889877319,0.36977231502532959,0.067521430552005768,-0.13819167017936707,0.20673686265945435,0.12834185361862183,-0.22430476546287537,-0.59441071748733521,0.3170209527015686,0.095055259764194489,-0.31726863980293274,-0.40665283799171448,0.73037546873092651,0.15967586636543274,-0.58734732866287231,-0.061256937682628632,-0.37103676795959473,-0.39073377847671509,0.26125916838645935,0.34299048781394958,0.57661527395248413,-0.52557235956192017,0.0090705398470163345,0.15182983875274658,-0.017427945509552956,-0.98836797475814819,-0.50056439638137817,1.1143901348114014,-0.43501389026641846,-0.25126773118972778,-0.014743993990123272,-0.24450628459453583,-0.36929881572723389,0.5211106538772583,0.50627529621124268,-0.16581286489963531, -0.078104123473167419,0.11886280030012131,0.086338244378566742,-0.48972779512405396,0.41636663675308228,-0.030103316530585289,0.076660670340061188,-0.31283929944038391,0.10985862463712692,0.034920550882816315,-0.13459329307079315,-0.068839438259601593,-0.22564904391765594,0.094360411167144775,-0.14190641045570374,-0.1992834061384201,-0.042449552565813065,0.070339851081371307,-0.42608848214149475,-0.150395467877388,-0.060151699930429459,-0.22629839181900024,-0.20856939256191254,0.11343895643949509,-0.097706623375415802,-0.22139132022857666,-0.093689389526844025,-0.45011091232299805,-0.063139937818050385,-0.36513018608093262,-0.25363779067993164,-0.24726149439811707,-0.16780166327953339,0.034549292176961899,0.36508500576019287,-0.013602792285382748,0.069046542048454285,-0.053955812007188797,-0.072425827383995056,0.65969300270080566,-0.26633986830711365,0.023711711168289185,0.14604316651821136,-0.11953061819076538,-0.12263170629739761,-0.40858486294746399,-0.2386937141418457,-0.30546224117279053,-0.25006446242332458,0.071345455944538116,-0.034253019839525223, 
  /* [0][1][][] */ -0.025678275153040886,0.33002278208732605,0.22291198372840881,-0.39025938510894775,-0.1814780980348587,0.24505558609962463,-0.48625826835632324,-0.13308010995388031,-0.16343875229358673,-0.27405321598052979,-0.095005497336387634,0.13959915935993195,-0.22575370967388153,0.25148576498031616,0.05245174840092659,-0.082503356039524078,0.46816727519035339,0.028181774541735649,-0.22815723717212677,-0.0024495329707860947,0.32270097732543945,-0.51891016960144043,-0.5891229510307312,0.18377503752708435,0.17811532318592072,-0.19941437244415283,-0.42823094129562378,0.17148569226264954,0.0013209728058427572,-0.42825821042060852,-0.10212653875350952,-0.31977099180221558,-0.11874829232692719,0.0011573720257729292,-0.43228691816329956,0.40829423069953918,-0.3630003035068512,-0.18852926790714264,0.037094447761774063,0.16757050156593323,0.51644635200500488,0.27707049250602722,0.02015937864780426,-0.41015049815177917,-0.21639664471149445,0.085308916866779327,-0.08725951611995697,-0.013670860789716244,0.30533438920974731,0.14775951206684113,-0.063391588628292084, 0.45420289039611816,0.32367295026779175,0.85128223896026611,0.13979962468147278,0.21863676607608795,0.64242285490036011,0.70753324031829834,-0.32483810186386108,-0.45604172348976135,0.47504246234893799,0.53134620189666748,0.086046852171421051,-0.22398275136947632,0.35364916920661926,-0.54441332817077637,-0.10461780428886414,0.50505471229553223,0.49940812587738037,-0.027200816199183464,0.073631890118122101,0.83061408996582031,-0.331816166639328,-0.045278843492269516,0.62488609552383423,0.49772471189498901,-0.27416309714317322,-0.37459728121757507,0.87398844957351685,0.040152613073587418,-0.13429684937000275,0.10817504674196243,-0.53437304496765137,-0.25799083709716797,0.21392078697681427,0.074381366372108459,0.90496301651000977,-0.4788220226764679,-0.57642495632171631,0.9623686671257019,-0.13353775441646576,0.39818796515464783,0.36049842834472656,-0.092701740562915802,-0.96047252416610718,-0.45433467626571655,0.47881340980529785,-0.20950980484485626,-0.11132744699716568,0.74163782596588135,0.22292400896549225,-0.34941789507865906, 0.043866634368896484,0.2107037752866745,-0.068635508418083191,-0.33726552128791809,0.26762551069259644,0.058077622205018997,-0.39800280332565308,-0.062064081430435181,-0.14855177700519562,-0.24457676708698273,-0.25044512748718262,0.22941181063652039,-0.082426413893699646,0.15981803834438324,0.051455840468406677,-0.0019904864020645618,0.20259925723075867,-0.023794420063495636,-0.11388567835092545,-0.03060673363506794,-0.031486529856920242,-0.28129425644874573,-0.43217289447784424,-0.094069242477416992,-0.042304530739784241,0.097833089530467987,-0.33190587162971497,-0.031480837613344193,0.094691246747970581,-0.31772533059120178,-0.070877090096473694,-0.28639528155326843,0.0072336946614086628,0.12999275326728821,-0.024053473025560379,-0.11713705956935883,-0.2324797511100769,-0.040295794606208801,-0.024113496765494347,0.19553005695343018,0.20884086191654205,0.43071606755256653,-0.16148851811885834,-0.31392404437065125,-0.33307459950447083,-0.021064328029751778,0.073262140154838562,0.040114562958478928,-0.17156724631786346,0.14420795440673828,-0.02675110287964344, 
  /* [0][2][][] */ 0.31610473990440369,-0.094586841762065887,-0.10113188624382019,-0.10829548537731171,1.0216375589370728,0.088961116969585419,-0.64385867118835449,-0.32785695791244507,0.0088751129806041718,0.21089838445186615,-0.27953946590423584,0.50397217273712158,-0.10341889411211014,-0.0020974678918719292,-0.19003491103649139,-0.21153064072132111,0.14068499207496643,0.19478146731853485,-0.27456450462341309,0.43290078639984131,-0.056135151535272598,-0.061772637069225311,0.051192056387662888,0.063814982771873474,0.018898166716098785,-0.2027212530374527,-0.52882963418960571,-0.41412258148193359,0.30564814805984497,0.042817175388336182,-0.28714248538017273,-0.1949208676815033,0.031607914716005325,0.45404326915740967,0.71326160430908203,-0.38571798801422119,-0.11585508286952972,-0.15318651497364044,0.13689844310283661,0.36613571643829346,0.18430125713348389,-0.42512840032577515,-0.69569581747055054,0.03837256133556366,-0.052501022815704346,0.12596622109413147,-0.24643377959728241,-0.29299664497375488,-0.1255900114774704,-0.17975138127803802,-0.13368596136569977, 0.55410516262054443,0.37624216079711914,-0.079669192433357239,-0.1229904517531395,-0.070351958274841309,0.038756418973207474,-0.4029887318611145,-0.36327588558197021,-0.32465749979019165,0.75566732883453369,-0.21412910521030426,0.40150487422943115,-0.32780224084854126,0.19960024952888489,-0.52711951732635498,-0.58626115322113037,0.13995246589183807,0.44096943736076355,-0.20922446250915527,0.56456828117370605,0.078901328146457672,-0.03309568390250206,0.1165081262588501,0.23591774702072144,0.34719753265380859,-0.34335243701934814,-0.14960108697414398,0.76227647066116333,0.72107815742492676,-0.20981915295124054,0.022932551801204681,0.027284864336252213,-0.053713206201791763,0.62529242038726807,0.84282141923904419,-0.2079007476568222,-0.13151088356971741,-0.38138610124588013,-0.14929383993148804,-0.16313792765140533,0.57939684391021729,-0.34067019820213318,-0.56303781270980835,0.16348713636398315,0.062261972576379776,0.75280117988586426,-0.16851465404033661,-0.11370491236448288,0.16727328300476074,-0.1998080313205719,-0.22052906453609467, 0.13131083548069,-0.0082124639302492142,-0.041593905538320541,-0.20590446889400482,1.1439633369445801,-0.025119036436080933,-0.87369364500045776,-0.08533746749162674,-0.0047310288064181805,0.13914287090301514,-0.13159389793872833,0.18036957085132599,-0.047845616936683655,0.057640489190816879,-0.30436789989471436,-0.054263286292552948,0.036337602883577347,0.11827751994132996,-0.1973344087600708,0.2121015191078186,-0.093896336853504181,-0.11743015795946121,-0.16338728368282318,-0.058099601417779922,0.085307411849498749,-0.057727418839931488,-0.41105371713638306,-0.26252081990242004,0.17280955612659454,0.05757671594619751,-0.2439829558134079,-0.13431453704833984,-0.052108075469732285,0.22424794733524323,0.31309682130813599,-0.28158754110336304,0.0032275179401040077,-0.011723312549293041,-0.091798640787601471,0.38908272981643677,0.24844485521316528,-0.22084073722362518,-0.61811649799346924,-0.075131051242351532,-0.039680242538452148,-0.10063537955284119,-0.16038484871387482,-0.26966717839241028,-0.29958567023277283,-0.050568647682666779,0.046977825462818146, 
};
const TfArray<4, int> tensor_dimension38 = { 4, { 1,3,3,51 } };
const ALIGN(16) float tensor_data39[1*3*3*51] = { 
  /* [0][0][][] */ -0.65935540199279785,-0.55859917402267456,-0.09499591588973999,0.18929207324981689,-0.44689399003982544,-0.46509307622909546,-0.81330519914627075,-0.43566220998764038,-0.048128519207239151,0.14187507331371307,0.38446784019470215,-0.30732223391532898,-0.62243884801864624,-0.24834878742694855,-0.4916212260723114,0.11187507957220078,0.20940734446048737,0.38973420858383179,0.42657685279846191,0.0011219691950827837,0.22234158217906952,-0.055460870265960693,0.17729310691356659,-0.10791929811239243,0.31380137801170349,-0.290010005235672,-0.35711285471916199,-0.1608683168888092,0.21526069939136505,-0.2009502649307251,0.039576213806867599,0.1996673196554184,0.14004164934158325,-0.56652754545211792,0.39353397488594055,-0.45761397480964661,0.61534690856933594,-0.12660141289234161,-0.27426087856292725,-0.29922208189964294,0.18771597743034363,0.2697283923625946,-0.22431293129920959,-0.23755517601966858,-0.13270391523838043,-0.10010792315006256,0.22110964357852936,0.37634870409965515,-0.32401907444000244,-0.047890424728393555,0.6794811487197876, -0.67692500352859497,-0.62846875190734863,0.11908164620399475,0.181794673204422,-0.51630079746246338,-0.41982278227806091,-0.66156405210494995,-0.40721583366394043,0.010877402499318123,0.28068694472312927,0.41109532117843628,-0.31745201349258423,-0.48617991805076599,-0.31106343865394592,-0.46325883269309998,0.019296677783131599,0.20567703247070312,0.43069514632225037,0.46091008186340332,0.025476979091763496,0.26787367463111877,-0.0485503189265728,0.18837347626686096,-0.16031463444232941,0.36177945137023926,-0.27966880798339844,-0.43116563558578491,-0.22470565140247345,0.20835983753204346,-0.24693374335765839,-0.026974473148584366,0.23094388842582703,0.21198670566082001,-0.48748886585235596,0.53273099660873413,-0.61310094594955444,0.53175050020217896,-0.037852160632610321,-0.2025601714849472,-0.27679792046546936,0.21229977905750275,0.25815346837043762,-0.23254804313182831,-0.34975478053092957,-0.24476397037506104,-0.1304183155298233,0.32879689335823059,0.40317416191101074,-0.31585812568664551,-0.11153067648410797,0.56765228509902954, -0.16763144731521606,-0.083154521882534027,-0.20200125873088837,-0.011460551992058754,-0.17400425672531128,-0.10020588338375092,-0.20087167620658875,-0.073095329105854034,-0.095011487603187561,0.14629875123500824,0.070191726088523865,-0.15977686643600464,-0.043645277619361877,0.0080759124830365181,0.011207100003957748,-0.06360732764005661,0.12873104214668274,0.0081559550017118454,-0.095985963940620422,0.03773048147559166,-0.029009506106376648,-0.10116933286190033,-0.002964687068015337,-0.061501950025558472,-0.0018805027939379215,-0.015599069185554981,-0.10531610250473022,-0.057151466608047485,0.046455573290586472,-0.052704721689224243,-0.081987477838993073,0.11078793555498123,0.058823678642511368,-0.046996612101793289,-0.037019360810518265,-0.12593057751655579,0.028655746951699257,-0.068389303982257843,-0.10427484661340714,-0.22337357699871063,0.17543920874595642,0.090765170753002167,-0.086727440357208252,-0.16884824633598328,-0.0063940742984414101,-0.05945993959903717,-0.0024078141432255507,-0.050712238997220993,-0.086540400981903076,0.024281742051243782,0.039526272565126419, 
